svm_type c_svc
kernel_type rbf
gamma 1
nr_class 5
total_sv 382
rho -0.73881015818872176 -0.55569651491843519 -0.81311571182860654 -0.44960317555436513 0.13198400722944525 -0.33459197952910763 0.27690660444974197 -0.3460948214871275 0.13587510258116917 0.39088405697169848
label 0 1 5 8 9
nr_sv 183 56 48 54 41
SV
0 0.14678376974444837 0 0.22846411485017545 1:2.65029 2:2.586676 3:2.257137 4:2.327945 5:0.887841 6:1.820557 7:2.051887 8:1.143414 9:1.380598 10:2.078025 11:1.158162 12:1.471574 13:2.399496 14:1.037518 15:1.790291 16:0.6046669 17:-0.7958375 18:0.03194568 
0 0.054150922407526413 0 0 1:2.660047 2:2.602892 3:2.277361 4:2.348289 5:0.8617075 6:1.845967 7:2.074845 8:1.125731 9:1.383286 10:2.107018 11:1.132416 12:1.476747 13:2.417893 14:1.025806 15:1.791769 16:0.5997559 17:-0.8001723 18:0.004162557 
0.44686133690802282 0 0 0 1:2.665487 2:2.615487 3:2.278897 4:2.356771 5:0.8730952 6:1.88016 7:2.104654 8:1.118819 9:1.439395 10:2.160861 11:1.093826 12:1.604385 13:2.504963 14:0.9175447 15:1.944095 16:0.6039529 17:-0.7969987 18:0.005823395 
0.66603342131063881 0 0 0 1:2.701861 2:2.634617 3:2.404465 4:2.268388 5:0.9659283 6:1.836827 7:2.024184 8:1.142774 9:1.424527 10:2.065511 11:1.141904 12:1.555647 13:2.361971 14:0.9752364 15:1.863315 16:0.5915228 17:-0.8054566 18:-0.03661095 
0.67449522618133806 0 0 0 1:2.693804 2:2.617957 3:2.377136 4:2.292238 5:0.9257633 6:1.846847 7:2.052995 8:1.117908 9:1.41955 10:2.106279 11:1.107421 12:1.551639 13:2.420818 14:0.9254451 15:1.880038 16:0.5990915 17:-0.8005415 18:-0.01492516 
1 0 0 0 1:2.68573 2:2.622091 3:2.403539 4:2.261789 5:0.9666978 6:1.837312 7:2.02634 8:1.131387 9:1.427026 10:2.074671 11:1.123951 12:1.560989 13:2.382353 14:0.9420473 15:1.866087 16:0.6039083 17:-0.7962425 18:-0.03595474 
0.50004012934702491 0 0 0 1:2.695585 2:2.626221 3:2.340269 4:2.263035 5:0.9671428 6:1.788729 7:2.033178 8:1.108034 9:1.413845 10:2.086146 11:1.099565 12:1.566267 13:2.415557 14:0.9126146 15:1.87974 16:0.5984629 17:-0.8001671 18:-0.03968362 
0.80112373459228403 0 0 0 1:2.705097 2:2.608631 3:2.364537 4:2.260388 5:0.9765817 6:1.826423 7:2.023239 8:1.135339 9:1.432392 10:2.060404 11:1.133617 12:1.575876 13:2.346938 14:0.9740981 15:1.866669 16:0.6097987 17:-0.7920083 18:-0.02946714 
1 0 0 0 1:2.708208 2:2.6283 3:2.318098 4:2.284611 5:0.9812247 6:1.886226 7:2.0509 8:1.116043 9:1.462436 10:2.093132 11:1.117604 12:1.635383 13:2.421085 14:0.9028265 15:1.965896 16:0.6095264 17:-0.792667 18:-0.01251661 
1 0 0 0 1:2.715613 2:2.636467 3:2.339453 4:2.263041 5:0.9978924 6:1.858676 7:2.027227 8:1.126491 9:1.451618 10:2.055296 11:1.15466 12:1.562369 13:2.343755 14:1.003707 15:1.865178 16:0.626827 17:-0.7789099 18:-0.01968238 
0 0 0.073652968135499208 0 1:2.731321 2:2.632294 3:2.344912 4:2.269379 5:0.9810746 6:1.927643 7:2.004527 8:1.143549 9:1.47901 10:2.026757 11:1.184909 12:1.581553 13:2.295605 14:1.065967 15:1.881073 16:0.6120247 17:-0.7894184 18:-0.04737543 
0 0.068764021345657678 0 0.066151310081945497 1:2.72078 2:2.621616 3:2.330962 4:2.270373 5:0.9519528 6:1.896916 7:1.999825 8:1.163151 9:1.410119 10:2.004529 11:1.223259 12:1.42799 13:2.221739 14:1.192131 15:1.697105 16:0.616766 17:-0.7855734 18:-0.04973919 
0.20442010030515656 0 0 0 1:2.724528 2:2.632371 3:2.361402 4:2.282043 5:0.9765003 6:1.94877 7:2.012425 8:1.152061 9:1.447403 10:2.016395 11:1.216383 12:1.49524 13:2.222746 14:1.154173 15:1.78335 16:0.610094 17:-0.7920449 18:-0.02121794 
0 0 1 0 1:2.734252 2:2.620797 3:2.346256 4:2.258337 5:0.9858263 6:1.927926 7:2.005419 8:1.145849 9:1.47482 10:2.026116 11:1.181815 12:1.560418 13:2.255735 14:1.081885 15:1.838605 16:0.604678 17:-0.7939085 18:-0.06382541 
0 0 0.030367414706071162 0 1:2.740276 2:2.634953 3:2.332984 4:2.249715 5:0.9587076 6:1.915283 7:1.994617 8:1.133585 9:1.462758 10:2.012955 11:1.186734 12:1.523711 13:2.227674 14:1.107888 15:1.783457 16:0.5962023 17:-0.8004258 18:-0.06213937 
0 0 1 0 1:2.753605 2:2.637434 3:2.351053 4:2.222772 5:1.015757 6:1.899873 7:1.988805 8:1.144682 9:1.481981 10:2.012526 11:1.179496 12:1.578067 13:2.226423 14:1.083564 15:1.82888 16:0.5997018 17:-0.7972409 18:-0.06902672 
0 0 0.48478984382075302 0 1:2.749036 2:2.625806 3:2.314018 4:2.256999 5:0.9671502 6:1.890868 7:2.000285 8:1.151844 9:1.438172 10:2.010237 11:1.20188 12:1.493889 13:2.196117 14:1.159793 15:1.738222 16:0.6046147 17:-0.7949513 18:-0.04993462 
1 0 0 0 1:2.715338 2:2.622538 3:2.396126 4:2.266348 5:0.9657243 6:1.850217 7:2.019271 8:1.142959 9:1.410539 10:2.058991 11:1.155124 12:1.517892 13:2.343157 14:1.003667 15:1.835024 16:0.5911781 17:-0.8050466 18:-0.04907477 
1 0.4677445729427922 0.097251499708651504 0.26943289567689188 1:2.581765 2:3.043208 3:2.820172 4:2.988334 5:3.066777 6:3.011003 7:3.093696 8:3.020415 9:3.08386 10:3.040436 11:3.085339 12:3.051859 13:2.956185 14:3.118939 15:3.036898 16:0.6785505 17:-0.7134598 18:-0.1747694 
1 0 0 0 1:2.560977 2:3.040254 3:2.792038 4:2.997142 5:3.061472 6:3.015605 7:3.083285 8:2.999238 9:3.081997 10:3.044172 11:3.05969 12:3.04662 13:2.941437 14:3.102118 15:3.032919 16:0.6778877 17:-0.7122248 18:-0.1822195 
1 0 0 0 1:2.576097 2:3.037611 3:2.811673 4:3.001893 5:3.057947 6:3.011194 7:3.092765 8:3.018715 9:3.084695 10:3.04717 11:3.071039 12:3.050839 13:2.948797 14:3.104441 15:3.029823 16:0.6782051 17:-0.7157219 18:-0.1666733 
1 0 0 0 1:2.567125 2:3.041541 3:2.81162 4:2.999645 5:3.056913 6:3.009025 7:3.087665 8:3.003366 9:3.080565 10:3.031867 11:3.0632 12:3.047362 13:2.939918 14:3.091025 15:3.026173 16:0.6817213 17:-0.7122233 18:-0.1673142 
1 0 0 0 1:2.5689 2:3.040275 3:2.81276 4:3.003105 5:3.059576 6:3.010134 7:3.086253 8:3.002987 9:3.075829 10:3.03443 11:3.059695 12:3.045574 13:2.941956 14:3.088522 15:3.028176 16:0.6860994 17:-0.7132546 18:-0.1433022 
1 0 0 0 1:2.561614 2:3.033767 3:2.805142 4:3.007895 5:3.057271 6:3.008622 7:3.082338 8:3.003844 9:3.076371 10:3.035473 11:3.057689 12:3.051667 13:2.935474 14:3.080209 15:3.038316 16:0.6905087 17:-0.7096928 18:-0.1397634 
1 0 0 0 1:2.574169 2:3.03257 3:2.818733 4:3.011219 5:3.059421 6:3.009073 7:3.07852 8:2.998261 9:3.074264 10:3.041734 11:3.050552 12:3.048774 13:2.932168 14:3.073838 15:3.034027 16:0.685679 17:-0.7141767 18:-0.1406983 
1 0 0 0 1:2.574595 2:3.034483 3:2.820524 4:3.007407 5:3.062048 6:3.011705 7:3.075567 8:3.004275 9:3.076421 10:3.046052 11:3.05715 12:3.048802 13:2.933851 14:3.083495 15:3.037942 16:0.6868491 17:-0.7140788 18:-0.1353876 
1 0 0 0 1:2.565095 2:3.037836 3:2.820252 4:3.013916 5:3.058813 6:3.010803 7:3.081292 8:3.005379 9:3.073739 10:3.042152 11:3.053993 12:3.046178 13:2.930088 14:3.08205 15:3.037392 16:0.6905913 17:-0.710369 18:-0.1358658 
1 0 0 0 1:2.568488 2:3.041266 3:2.82452 4:3.006467 5:3.060003 6:3.009624 7:3.079928 8:3.012581 9:3.080327 10:3.051152 11:3.063859 12:3.04466 13:2.932149 14:3.100176 15:3.041691 16:0.6810236 17:-0.7183357 18:-0.1421289 
1 0 0 0 1:2.565039 2:3.051126 3:2.81969 4:3.015937 5:3.066637 6:3.01335 7:3.070065 8:3.005473 9:3.070021 10:3.035235 11:3.056257 12:3.038827 13:2.925099 14:3.090525 15:3.030798 16:0.6869305 17:-0.7125443 18:-0.1428534 
1 0 0.0061935434862734513 0 1:2.570318 2:3.054626 3:2.811154 4:3.002436 5:3.067594 6:3.013525 7:3.079394 8:3.019592 9:3.075527 10:3.035037 11:3.075745 12:3.039513 13:2.92983 14:3.107821 15:3.028527 16:0.6859708 17:-0.7132636 18:-0.1438716 
1 0 0 0 1:2.579901 2:3.044124 3:2.807393 4:3.004972 5:3.067425 6:3.014552 7:3.082502 8:3.014819 9:3.077142 10:3.042658 11:3.062725 12:3.054897 13:2.931471 14:3.087034 15:3.049204 16:0.6857035 17:-0.7101555 18:-0.1596553 
1 0 0 0 1:2.577622 2:3.045369 3:2.809763 4:3.004757 5:3.058493 6:3.015979 7:3.083596 8:3.004986 9:3.077612 10:3.041989 11:3.056287 12:3.055905 13:2.920474 14:3.079859 15:3.046767 16:0.6893737 17:-0.7092345 18:-0.1474798 
1 0 0 0 1:2.583708 2:3.041064 3:2.819099 4:3.002884 5:3.05847 6:3.013352 7:3.086488 8:3.011106 9:3.083103 10:3.041558 11:3.061119 12:3.053019 13:2.926828 14:3.088913 15:3.049163 16:0.6880023 17:-0.712588 18:-0.1373718 
1 0 0 0 1:2.593974 2:3.040056 3:2.822501 4:3.002017 5:3.06294 6:3.005116 7:3.079992 8:3.015293 9:3.07577 10:3.037813 11:3.066031 12:3.048455 13:2.930345 14:3.100096 15:3.042536 16:0.6886171 17:-0.7113199 18:-0.1408211 
1 0 0 0 1:2.578409 2:3.038525 3:2.813896 4:3.005558 5:3.063332 6:3.006581 7:3.075104 8:3.004302 9:3.070508 10:3.031892 11:3.053785 12:3.041845 13:2.926209 14:3.090923 15:3.040606 16:0.683632 17:-0.7129912 18:-0.1558559 
1 0 0 0 1:2.570029 2:3.014774 3:2.826851 4:3.008103 5:3.046205 6:3.011598 7:3.062756 8:2.977812 9:3.067973 10:3.030051 11:3.025097 12:3.044601 13:2.907429 14:3.083206 15:3.049787 16:0.6853421 17:-0.7137784 18:-0.1443146 
1 0.34620697470144951 0.019494805652507385 0.31220036293745007 1:2.616699 2:2.918681 3:2.835762 4:2.875021 5:2.829884 6:2.982402 7:2.982784 8:2.727416 9:3.030638 10:3.008587 11:2.766325 12:3.048531 13:2.951865 14:3.003582 15:3.034801 16:0.6742404 17:-0.7336813 18:-0.08433024 
1 0 0.042608698449626739 0 1:2.579833 2:2.924144 3:2.855003 4:2.907053 5:2.823671 6:2.916599 7:2.991509 8:2.719956 9:3.010478 10:2.998255 11:2.762092 12:3.033519 13:2.916056 14:2.959201 15:3.0082 16:0.6371642 17:-0.7688388 18:0.0539331 
0.36919128919330485 0.3348037964409703 0.13467052311519059 0.6345281001553239 1:2.627154 2:2.871768 3:3.01443 4:2.682182 5:2.178616 6:2.333122 7:2.731868 8:1.914028 9:2.358863 10:2.787274 11:1.919965 12:2.286039 13:2.774193 14:2.47919 15:2.169602 16:0.6541489 17:-0.7539594 18:0.0602863 
0.080593886082219596 0.23750191657517147 0 0.11628020318469591 1:2.771742 2:2.73928 3:2.665869 4:2.548636 5:0.9559873 6:2.782349 7:2.435997 8:1.095381 9:2.66935 10:2.539052 11:0.9881769 12:2.736719 13:2.784655 14:0.98195 15:2.77341 16:0.6638064 17:-0.7425158 18:0.08961838 
0 0.1627686266116205 0 0.21945965427815403 1:2.738558 2:2.693466 3:2.747575 4:2.411538 5:1.146944 6:2.731963 7:2.292478 8:1.211451 9:2.753926 10:2.40531 11:1.090885 12:2.747289 13:2.712625 14:0.9190268 15:2.753386 16:0.7090799 17:-0.699357 18:-0.09003094 
0.19015082817801857 0.31021620648876191 0 0 1:2.687287 2:2.670695 3:2.62801 4:2.39288 5:0.9870441 6:2.646256 7:2.24981 8:1.067365 9:2.532292 10:2.381097 11:0.9397067 12:2.642787 13:2.720976 14:0.6407874 15:2.693468 16:0.7156334 17:-0.6970456 18:-0.04468071 
0 0.13595941110037088 0 0 1:2.678152 2:2.669781 3:2.643237 4:2.338955 5:1.041964 6:2.61989 7:2.234343 8:1.036015 9:2.456757 10:2.364084 11:0.9139105 12:2.574268 13:2.701804 14:0.6035859 15:2.640916 16:0.6885639 17:-0.724573 18:0.02955819 
0 0.62201744359648203 0 0 1:2.64089 2:2.625196 3:2.552973 4:2.25129 5:1.174052 6:2.499417 7:2.102421 8:1.124371 9:2.339024 10:2.231773 11:0.989103 12:2.479284 13:2.621911 14:0.6249046 15:2.574338 16:0.6287462 17:-0.7680121 18:0.1218015 
0 0.42927744150538633 0 0 1:2.645619 2:2.622711 3:2.598343 4:2.215555 5:1.209949 6:2.522385 7:2.07876 8:1.124787 9:2.311868 10:2.207528 11:0.9881498 12:2.460705 13:2.596625 14:0.6204212 15:2.557301 16:0.6342307 17:-0.768162 18:0.0876278 
0 0.52916265165358978 0 0 1:2.645933 2:2.634484 3:2.571818 4:2.247813 5:1.187382 6:2.54341 7:2.119585 8:1.092591 9:2.328304 10:2.259939 11:0.9520167 12:2.483682 13:2.642734 14:0.5937603 15:2.582501 16:0.6360689 17:-0.7661884 18:0.09149688 
0.55924428466527032 1 0 0 1:2.620726 2:2.613428 3:2.528719 4:2.240853 5:1.204611 6:2.548085 7:2.120603 8:1.098934 9:2.344214 10:2.25709 11:0.9466256 12:2.490313 13:2.640039 14:0.5911787 15:2.587448 16:0.6300562 17:-0.7753226 18:0.04363626 
0 1 0 0 1:2.618489 2:2.621501 3:2.537231 4:2.239404 5:1.18701 6:2.527597 7:2.11601 8:1.093785 9:2.291015 10:2.262562 11:0.931835 12:2.466551 13:2.648099 14:0.5762191 15:2.576903 16:0.6291021 17:-0.7737052 18:0.07490581 
0 0.82788271196414298 0 0 1:2.625444 2:2.616231 3:2.521822 4:2.247165 5:1.178558 6:2.516129 7:2.113192 8:1.118852 9:2.311244 10:2.263559 11:0.9517601 12:2.475199 13:2.660856 14:0.5831862 15:2.587847 16:0.6254923 17:-0.7788737 18:0.04598977 
0 1 0 0 1:2.583103 2:1.970095 3:2.778965 4:2.931141 5:3.016176 6:2.865755 7:2.934663 8:3.022392 9:2.91966 10:2.166678 11:1.70581 12:2.644951 13:2.294086 14:1.729173 15:2.514455 16:0.5271487 17:-0.8265114 18:-0.1974669 
0 1 0 0 1:2.586277 2:1.965983 3:2.77617 4:2.932728 5:3.00684 6:2.855845 7:2.938192 8:3.008324 9:2.924193 10:2.135497 11:1.732025 12:2.632378 13:2.300846 14:1.705968 15:2.517317 16:0.5225216 17:-0.8210342 18:-0.2299436 
0 1 0 0 1:2.582994 2:1.968654 3:2.792396 4:2.932194 5:3.029145 6:2.858135 7:2.928081 8:3.012158 9:2.918288 10:2.174277 11:1.696837 12:2.629047 13:2.286368 14:1.74243 15:2.506994 16:0.5283876 17:-0.8184808 18:-0.2256007 
0 1 0 0 1:2.561298 2:1.940479 3:2.753239 4:2.924599 5:3.023698 6:2.857552 7:2.919232 8:2.992519 9:2.921957 10:2.1056 11:1.73651 12:2.619414 13:2.220448 14:1.777811 15:2.4974 16:0.5305676 17:-0.814707 18:-0.2339884 
0.10122789034135789 1 0.089405324865571303 0.27081629520327105 1:2.552026 2:1.930743 3:2.739649 4:2.91953 5:3.022322 6:2.856339 7:2.90958 8:2.981691 9:2.917359 10:2.079211 11:1.742689 12:2.61091 13:2.199735 14:1.781159 15:2.477799 16:0.5189604 17:-0.8260133 18:-0.2199598 
0 1 0 0 1:2.606215 2:1.990188 3:2.76526 4:2.947041 5:3.014821 6:2.85303 7:2.9453 8:3.007938 9:2.926636 10:2.173658 11:1.698421 12:2.644531 13:2.264521 14:1.738797 15:2.502038 16:0.5193917 17:-0.8294523 18:-0.2055261 
0 1 0 0 1:2.557334 2:1.960135 3:2.761803 4:2.947602 5:3.006766 6:2.860514 7:2.939066 8:3.021384 9:2.915007 10:2.184403 11:1.72175 12:2.626618 13:2.30049 14:1.755903 15:2.474595 16:0.5191942 17:-0.8138204 18:-0.2610245 
0 1 0 0 1:2.558025 2:1.966149 3:2.78197 4:2.939156 5:3.014464 6:2.86121 7:2.930091 8:3.009884 9:2.909419 10:2.179037 11:1.694503 12:2.609078 13:2.310882 14:1.714937 15:2.475314 16:0.5279711 17:-0.8256724 18:-0.1987751 
0 1 0 0 1:2.565801 2:1.965591 3:2.77625 4:2.938072 5:3.011251 6:2.860743 7:2.931117 8:3.011343 9:2.913076 10:2.176562 11:1.710317 12:2.616859 13:2.304649 14:1.731568 15:2.485414 16:0.5336963 17:-0.8212728 18:-0.2016908 
0 1 0 0 1:2.572086 2:1.966374 3:2.772184 4:2.953143 5:3.023734 6:2.863799 7:2.940042 8:3.03039 9:2.918914 10:2.195015 11:1.730855 12:2.639873 13:2.311184 14:1.759622 15:2.514902 16:0.529882 17:-0.8216947 18:-0.2098639 
0 1 0 0 1:2.569543 2:1.962275 3:2.789245 4:2.937597 5:3.004766 6:2.855324 7:2.930539 8:3.009753 9:2.908573 10:2.186806 11:1.698901 12:2.611438 13:2.3055 14:1.719372 15:2.472169 16:0.5256172 17:-0.8245627 18:-0.2093392 
0 1 0 0 1:2.571226 2:1.966712 3:2.782603 4:2.941229 5:3.001709 6:2.85914 7:2.93789 8:3.009834 9:2.91146 10:2.194533 11:1.690084 12:2.619409 13:2.308256 14:1.710526 15:2.468425 16:0.5281436 17:-0.8258196 18:-0.1977031 
0 1 0 0 1:2.597095 2:1.97723 3:2.775926 4:2.962564 5:3.01469 6:2.86492 7:2.960532 8:3.032041 9:2.922672 10:2.205834 11:1.748141 12:2.653257 13:2.335354 14:1.765336 15:2.523619 16:0.5284894 17:-0.8254281 18:-0.1984121 
0 1 0 0 1:2.604237 2:1.980165 3:2.792281 4:2.949238 5:3.004809 6:2.859437 7:2.945931 8:3.014483 9:2.930348 10:2.163728 11:1.718831 12:2.646013 13:2.300778 14:1.718062 15:2.523511 16:0.5196172 17:-0.8213111 18:-0.2354698 
0 1 0 0 1:2.597133 2:1.969744 3:2.76599 4:2.944734 5:2.999317 6:2.873828 7:2.952738 8:3.02626 9:2.931248 10:2.185936 11:1.726399 12:2.660815 13:2.357137 14:1.684652 15:2.542642 16:0.5201342 17:-0.8219012 18:-0.2322475 
0 1 0 0 1:2.592109 2:1.969814 3:2.772262 4:2.947093 5:3.001564 6:2.868141 7:2.951602 8:3.026625 9:2.929032 10:2.188965 11:1.718153 12:2.652957 13:2.350883 14:1.679379 15:2.53766 16:0.5221076 17:-0.8225141 18:-0.2255535 
0 1 0 0 1:2.58639 2:1.996371 3:2.804743 4:2.953488 5:3.007645 6:2.862032 7:2.946055 8:3.034498 9:2.908692 10:2.244219 11:1.67077 12:2.638563 13:2.40155 14:1.643675 15:2.503174 16:0.5216848 17:-0.8233385 18:-0.2235145 
0 1 0 0 1:2.593677 2:2.01566 3:2.83709 4:2.94263 5:3.01887 6:2.871116 7:2.94159 8:3.070913 9:2.918157 10:2.260218 11:1.681058 12:2.679701 13:2.450843 14:1.611179 15:2.554224 16:0.5252172 17:-0.8294215 18:-0.1902812 
0.09412177212015084 1 0.1017554463636744 0.19649653427382249 1:2.585336 2:2.071055 3:2.941622 4:2.926806 5:3.040107 6:2.870204 7:2.924298 8:3.090612 9:2.92708 10:2.271809 11:1.685862 12:2.676655 13:2.484453 14:1.622729 15:2.563987 16:0.5103626 17:-0.8377643 18:-0.1941159 
0 1 0 0 1:2.575641 2:2.063508 3:2.927769 4:2.945161 5:3.044935 6:2.875357 7:2.931742 8:3.085657 9:2.922919 10:2.257703 11:1.677671 12:2.671044 13:2.464605 14:1.615641 15:2.549116 16:0.5125408 17:-0.8332142 18:-0.2074995 
0.10118069565027771 1 0 0.12109331675227589 1:2.590953 2:2.167933 3:2.9165 4:2.891069 5:2.988348 6:2.879747 7:2.849176 8:3.059605 9:2.917448 10:2.16851 11:1.742214 12:2.7194 13:2.433571 14:1.622552 15:2.634913 16:0.5099114 17:-0.8407509 18:-0.1820115 
0.11789676000780921 0.83675046877915293 0.0010763619161642914 0.30193486537767555 1:2.628675 2:2.543653 3:2.646439 4:2.72969 5:2.614699 6:2.189725 7:2.740329 8:2.434301 9:2.002298 10:2.08418 11:1.827914 12:2.763378 13:2.240954 14:1.741307 15:2.801623 16:0.4919889 17:-0.855037 18:-0.1638865 
0.12782651250931543 0 0.15122832528371197 0.19772420107609176 1:2.528601 2:2.447049 3:2.628841 4:2.741503 5:2.6318 6:2.11388 7:2.715486 8:2.378447 9:1.912952 10:2.086987 11:1.820526 12:2.708179 13:2.214115 14:1.806243 15:2.741914 16:0.5151827 17:-0.8475445 18:-0.1274958 
0.27617370917095718 0.47320471019572907 0.079084586228889101 0.44594540077098438 1:2.600956 2:2.604623 3:2.573982 4:2.710081 5:1.746743 6:2.401512 7:2.715761 8:1.347389 9:2.671153 10:2.230224 11:1.572773 12:2.754666 13:2.388627 14:1.424839 15:2.729995 16:0.5329093 17:-0.8438895 18:-0.06211299 
0 0 0 1 1:2.772603 2:2.664773 3:2.662348 4:2.508738 5:1.460192 6:2.584549 7:2.404243 8:1.305455 9:2.668671 10:2.339324 11:1.289941 12:2.698979 13:2.597553 14:1.151517 15:2.695598 16:0.5285632 17:-0.848283 18:0.03220119 
0.55084136748513735 0.13298930770613804 0 0.26032499239056778 1:2.787476 2:2.669098 3:2.647197 4:2.518391 5:1.478954 6:2.539455 7:2.428946 8:1.286077 9:2.69114 10:2.335097 11:1.310919 12:2.700532 13:2.58112 14:1.151352 15:2.701357 16:0.5730626 17:-0.819321 18:-0.01767455 
0 0 0.98619165717300694 0 1:2.578367 2:2.602155 3:2.535788 4:2.366806 5:1.130464 6:2.321089 7:2.163062 8:1.185639 9:1.71916 10:2.197122 11:1.101246 12:1.951919 13:2.530113 14:0.9774035 15:2.124513 16:0.4798271 17:-0.8695367 18:-0.116927 
0.084828732953585687 0 0 0 1:2.612735 2:2.608294 3:2.531526 4:2.338727 5:1.112965 6:2.263066 7:2.121691 8:1.201967 9:1.604353 10:2.160047 11:1.128919 12:1.855346 13:2.499441 14:1.003147 15:2.072644 16:0.4878834 17:-0.8658788 18:-0.110561 
0.15249648607149552 0 0 0 1:2.595151 2:2.589288 3:2.542097 4:2.341218 5:1.160051 6:2.287015 7:2.118232 8:1.220793 9:1.59921 10:2.139294 11:1.154871 12:1.8449 13:2.436933 14:1.071659 15:2.036335 16:0.4630747 17:-0.8815536 18:-0.09178883 
0 0 1 0.19871208300208854 1:2.602397 2:2.584901 3:2.532452 4:2.312133 5:1.267155 6:2.371024 7:2.084258 8:1.274307 9:1.720689 10:2.117421 11:1.173262 12:1.953133 13:2.386274 14:1.105951 15:2.109072 16:0.4516614 17:-0.8866543 18:-0.09922721 
0 0 1 0.1672654893561101 1:2.594292 2:2.572926 3:2.52615 4:2.369404 5:1.164184 6:2.395239 7:2.172665 8:1.204631 9:1.840904 10:2.221911 11:1.088058 12:2.064571 13:2.541717 14:0.9781637 15:2.2258 16:0.4610867 17:-0.8837826 18:-0.07954447 
0 0 1 0 1:2.593163 2:2.555927 3:2.53615 4:2.313311 5:1.191526 6:2.278808 7:2.129923 8:1.188736 9:1.673493 10:2.167259 11:1.113714 12:1.889772 13:2.461043 14:1.017262 15:2.049095 16:0.4581442 17:-0.8828917 18:-0.1029865 
0 0 1 0 1:2.593713 2:2.60497 3:2.533844 4:2.369232 5:1.130584 6:2.326708 7:2.208886 8:1.150648 9:1.855168 10:2.264319 11:1.051614 12:2.078973 13:2.656178 14:0.828158 15:2.279103 16:0.4566961 17:-0.8832055 18:-0.1066612 
0 0 1 0 1:2.582182 2:2.585359 3:2.561768 4:2.338125 5:1.158024 6:2.299677 7:2.17157 8:1.180482 9:1.766 10:2.206604 11:1.103311 12:1.994562 13:2.551764 14:0.9384699 15:2.164261 16:0.4499551 17:-0.8879158 18:-0.09563472 
0 0 1 0 1:2.605028 2:2.561824 3:2.549283 4:2.341666 5:1.17066 6:2.32667 7:2.14456 8:1.210365 9:1.798333 10:2.169393 11:1.128474 12:2.011218 13:2.484851 14:1.002782 15:2.158061 16:0.4633295 17:-0.8779548 18:-0.1205034 
0 0 1 0 1:2.594564 2:2.572394 3:2.540675 4:2.351067 5:1.11444 6:2.271055 7:2.166271 8:1.172854 9:1.74257 10:2.191252 11:1.100194 12:1.970695 13:2.516237 14:0.981261 15:2.124552 16:0.4429384 17:-0.8894498 18:-0.1126258 
0 0 1 0 1:2.59274 2:2.567042 3:2.545106 4:2.35601 5:1.11731 6:2.270431 7:2.194396 8:1.145257 9:1.754762 10:2.21726 11:1.079191 12:1.977827 13:2.540189 14:0.9392026 15:2.138607 16:0.4499982 17:-0.8865348 18:-0.1075063 
0.11742847445780231 0.265147921187325 1 0.17818253119655145 1:2.745708 2:2.786596 3:2.473088 4:1.919689 5:1.155806 6:2.05027 7:1.825339 8:1.191012 9:1.642759 10:1.800609 11:1.280543 12:1.751969 13:1.7735 14:1.342353 15:1.894257 16:0.4931955 17:-0.8337561 18:-0.2482115 
0.070374445801298105 0.032328555133207489 1 0.1766266045842311 1:2.722973 2:2.794231 3:2.349613 4:1.920604 5:1.252311 6:2.066343 7:1.803678 8:1.267139 9:1.715264 10:1.782798 11:1.274822 12:1.918942 13:1.841353 14:1.266936 15:2.074773 16:0.4768769 17:-0.8452838 18:-0.2410056 
0 0 1 0 1:2.704292 2:2.753235 3:2.36219 4:2.050079 5:1.085515 6:2.116163 7:1.881431 8:1.227926 9:1.679099 10:1.889886 11:1.262351 12:1.879496 13:2.009774 14:1.232888 15:2.126233 16:0.4979812 17:-0.8344817 18:-0.2359133 
0 0 1 0 1:2.678326 2:2.671613 3:2.32153 4:2.159283 5:1.011564 6:2.087119 7:1.954804 8:1.192724 9:1.660417 10:1.973366 11:1.18364 12:1.884362 13:2.144794 14:1.075431 15:2.155323 16:0.4663182 17:-0.8751605 18:-0.1290022 
0 0 1 0 1:2.654364 2:2.682014 3:2.353818 4:2.142339 5:1.097269 6:2.098798 7:1.963035 8:1.211581 9:1.738177 10:1.990394 11:1.162228 12:1.963567 13:2.199593 14:1.010188 15:2.23434 16:0.4363132 17:-0.8934289 18:-0.106843 
0 0 1 0 1:2.614145 2:2.653544 3:2.293425 4:2.236085 5:0.9814687 6:2.116204 7:2.013966 8:1.182123 9:1.65715 10:2.054417 11:1.13912 12:1.881734 13:2.261968 14:1.000963 15:2.19473 16:0.4338965 17:-0.8917607 18:-0.1284392 
0 0 1 0 1:2.60256 2:2.628098 3:2.329895 4:2.224284 5:1.045506 6:2.102875 7:2.026862 8:1.168402 9:1.65928 10:2.079797 11:1.123217 12:1.885726 13:2.287074 14:0.9723664 15:2.155115 16:0.4086048 17:-0.9066697 18:-0.104843 
0 0 1 0 1:2.623789 2:2.609947 3:2.384168 4:2.296053 5:0.9773813 6:2.102803 7:2.074073 8:1.139884 9:1.641609 10:2.139099 11:1.098541 12:1.889112 13:2.397641 14:0.9053234 15:2.175896 16:0.3939264 17:-0.9147283 18:-0.08996628 
0 0 0.26731245586355157 0 1:2.607564 2:2.625297 3:2.396875 4:2.28586 5:0.9868062 6:1.977871 7:2.037169 8:1.171567 9:1.502254 10:2.092789 11:1.130413 12:1.709393 13:2.363828 14:0.9473984 15:2.043186 16:0.3874564 17:-0.9193476 18:-0.06839334 
0 0 1 0 1:2.616148 2:2.590993 3:2.380181 4:2.30516 5:0.9665738 6:2.096486 7:2.092711 8:1.103877 9:1.639225 10:2.186135 11:1.034952 12:1.900192 13:2.462946 14:0.8437856 15:2.188567 16:0.3741384 17:-0.924951 18:-0.06697783 
0 0 0 0.47198526965626975 1:2.577626 2:2.51133 3:2.340484 4:2.325208 5:1.014122 6:1.953021 7:2.139687 8:1.096088 9:1.661139 10:2.237441 11:0.978219 12:1.927216 13:2.620229 14:0.6769731 15:2.187408 16:0.3193077 17:-0.9476113 18:0.008680148 
0 0 0 0.011684469748781776 1:2.579469 2:2.508764 3:2.343211 4:2.328833 5:1.022725 6:2.050157 7:2.160489 8:1.0894 9:1.771519 10:2.260568 11:0.9647514 12:2.056034 13:2.655473 14:0.6211063 15:2.301879 16:0.3132803 17:-0.9493794 18:0.02311131 
0 0 1 0 1:2.689901 2:2.608135 3:2.265771 4:2.197378 5:1.047521 6:1.961747 7:1.956722 8:1.200051 9:1.578219 10:1.997945 11:1.186064 12:1.74748 13:2.234246 14:1.042882 15:2.047383 16:0.4123192 17:-0.9072279 18:-0.08324844 
0 0 1 0 1:2.675674 2:2.572246 3:2.257464 4:2.214465 5:1.061546 6:1.985165 7:1.982813 8:1.205179 9:1.597363 10:2.043715 11:1.154886 12:1.790745 13:2.303145 14:0.9915814 15:2.082841 16:0.4099488 17:-0.9075021 18:-0.09155221 
0.65062662166397622 0 1 0 1:2.67705 2:2.580108 3:2.262271 4:2.211267 5:1.043642 6:1.910799 7:1.986612 8:1.186869 9:1.572696 10:2.049932 11:1.135936 12:1.774751 13:2.327918 14:0.9267766 15:2.089936 16:0.4040773 17:-0.9123043 18:-0.06650028 
0 0 1 0 1:2.671431 2:2.579709 3:2.253587 4:2.27269 5:0.9791983 6:1.960618 7:2.04164 8:1.137916 9:1.599315 10:2.125247 11:1.073186 12:1.81324 13:2.422771 14:0.8766342 15:2.101678 16:0.4047542 17:-0.912231 18:-0.06331535 
0 0 1 0 1:2.669839 2:2.570826 3:2.271758 4:2.302137 5:0.9741846 6:1.965081 7:2.080739 8:1.130831 9:1.620894 10:2.181121 11:1.04136 12:1.868127 13:2.528593 14:0.8047219 15:2.140791 16:0.3951791 17:-0.9164789 18:-0.06244874 
0 0 1 0.054680023708394421 1:2.685618 2:2.558634 3:2.287035 4:2.286949 5:1.002243 6:1.949858 7:2.062575 8:1.139117 9:1.616947 10:2.175613 11:1.024099 12:1.894955 13:2.529385 14:0.7665299 15:2.178199 16:0.3764267 17:-0.9247719 18:-0.05567557 
0 0 0 0.12714353556858785 1:2.670754 2:2.543631 3:2.281066 4:2.356981 5:0.9604232 6:2.000984 7:2.128026 8:1.14462 9:1.637833 10:2.240175 11:1.002476 12:1.944595 13:2.617727 14:0.7212666 15:2.231018 16:0.3652814 17:-0.9300917 18:-0.03871808 
0.0032787155108170013 0 0 0.56161182492138251 1:2.651161 2:2.538779 3:2.274177 4:2.336432 5:0.9668139 6:1.934557 7:2.108558 8:1.139905 9:1.610828 10:2.216901 11:0.9994889 12:1.906268 13:2.606916 14:0.6958545 15:2.186238 16:0.3811866 17:-0.9240425 18:-0.02902387 
0 0 1 0 1:2.643297 2:2.52744 3:2.312047 4:2.349471 5:0.9685245 6:2.065881 7:2.148807 8:1.107676 9:1.763512 10:2.274446 11:0.9553848 12:2.083192 13:2.674839 14:0.6063297 15:2.331618 16:0.3746091 17:-0.9269062 18:-0.02265227 
0 0.19990846311961866 0 0 1:2.543196 2:2.465456 3:2.179264 4:2.376039 5:0.904397 6:2.031649 7:2.198336 8:1.072772 9:1.745159 10:2.297319 11:0.9267958 12:2.036452 13:2.706844 14:0.5741038 15:2.284218 16:0.3443555 17:-0.938224 18:0.03398704 
0 0 0.11487346172901311 0 1:2.568699 2:2.478089 3:2.254976 4:2.316963 5:1.017575 6:2.091212 7:2.147303 8:1.110759 9:1.812411 10:2.268434 11:0.9507886 12:2.092327 13:2.693778 14:0.5983385 15:2.322421 16:0.3446871 17:-0.9385604 18:0.01718093 
0 0 0.6314006415264658 0 1:2.569043 2:2.473496 3:2.252292 4:2.334142 5:0.9909328 6:2.0572 7:2.150335 8:1.097145 9:1.815643 10:2.263777 11:0.9460996 12:2.091272 13:2.68644 14:0.6001223 15:2.312284 16:0.3428145 17:-0.9390756 18:0.02480184 
0 0 1 0 1:2.567789 2:2.473159 3:2.237196 4:2.344044 5:0.9944485 6:2.080379 7:2.164108 8:1.093708 9:1.838981 10:2.278306 11:0.9383824 12:2.126999 13:2.686406 14:0.5993342 15:2.339236 16:0.3452539 17:-0.9380138 18:0.0304942 
0 0 1 0 1:2.555262 2:2.494426 3:2.278095 4:2.335303 5:1.008088 6:2.079022 7:2.147106 8:1.096681 9:1.806306 10:2.264422 11:0.9508235 12:2.09603 13:2.681617 14:0.6130738 15:2.343171 16:0.3516181 17:-0.9359255 18:0.02020134 
0 0 0 0.15341015129750132 1:2.561007 2:2.469401 3:2.198542 4:2.290916 5:0.9594392 6:1.977802 7:2.091185 8:1.127869 9:1.708877 10:2.210324 11:0.9603576 12:1.99392 13:2.651525 14:0.6040268 15:2.229772 16:0.3399442 17:-0.9399449 18:0.03068411 
0 0 1 1 1:2.555764 2:2.486032 3:2.23943 4:2.313438 5:1.044029 6:2.08015 7:2.136195 8:1.117855 9:1.847953 10:2.256611 11:0.9471434 12:2.128981 13:2.666889 14:0.6027268 15:2.349138 16:0.3354556 17:-0.9418514 18:0.01963248 
0.093546647272784805 0 0 0 1:2.578522 2:2.495439 3:2.180061 4:2.346951 5:0.9293598 6:1.972675 7:2.154993 8:1.100064 9:1.696171 10:2.26118 11:0.9528703 12:1.990279 13:2.707641 14:0.5818753 15:2.246669 16:0.348601 17:-0.9366103 18:0.03519206 
0 0 0 1 1:2.582341 2:2.488154 3:2.190713 4:2.32342 5:0.9629607 6:1.983474 7:2.132043 8:1.121181 9:1.720542 10:2.246909 11:0.9506277 12:2.025887 13:2.692942 14:0.5669118 15:2.272025 16:0.3394607 17:-0.9404992 18:0.01508945 
0 0 1 1 1:2.565482 2:2.493273 3:2.265931 4:2.32084 5:1.024222 6:2.071386 7:2.148474 8:1.123014 9:1.816053 10:2.264462 11:0.9477538 12:2.117867 13:2.689087 14:0.5788337 15:2.348465 16:0.3380751 17:-0.9408725 18:0.02154633 
0 0.0075813161423544792 0 0 1:2.544782 2:2.508129 3:2.195704 4:2.340955 5:0.9006903 6:1.978677 7:2.155038 8:1.065966 9:1.698336 10:2.280407 11:0.9315612 12:1.97162 13:2.714277 14:0.5565457 15:2.236892 16:0.3523875 17:-0.9353589 18:0.03044362 
0 0 0 1 1:2.560899 2:2.490416 3:2.212753 4:2.328839 5:0.9742438 6:1.988852 7:2.143939 8:1.109249 9:1.750173 10:2.257373 11:0.9459401 12:2.04009 13:2.699767 14:0.5715869 15:2.283578 16:0.3367462 17:-0.9415002 18:0.01338692 
0 0 1 0.9408596121192887 1:2.544751 2:2.487073 3:2.245007 4:2.321888 5:1.007664 6:2.088851 7:2.141752 8:1.116858 9:1.843292 10:2.253133 11:0.9611145 12:2.117418 13:2.695706 14:0.5777408 15:2.346859 16:0.3404144 17:-0.940034 18:0.02131256 
0 0 0 1 1:2.831395 2:2.88274 3:2.894695 4:2.232813 5:2.532079 6:3.016571 7:2.098448 8:2.571869 9:2.999153 10:1.981578 11:2.732127 12:2.936884 13:2.119847 14:2.56775 15:2.937533 16:0.2432296 17:-0.1771815 18:-0.9536488 
0 0 0 1 1:2.89046 2:2.881076 3:2.884615 4:2.216457 5:2.554855 6:2.986887 7:2.064543 8:2.603043 9:2.977846 10:1.95306 11:2.70134 12:2.914282 13:2.105044 14:2.534132 15:2.966176 16:0.2432296 17:-0.1771815 18:-0.9536488 
0.14573651098053239 0.24049632112280203 0.089688051203431263 1 1:3.127657 2:2.85827 3:2.917131 4:2.360439 5:2.513165 6:2.9348 7:2.142302 8:2.625158 9:2.927333 10:1.999947 11:2.730871 12:2.974459 13:2.09094 14:2.503679 15:3.000799 16:0.2432296 17:-0.1771815 18:-0.9536488 
0 0 0 1 1:2.757754 2:2.88881 3:2.836475 4:2.22238 5:2.633152 6:3.030499 7:2.132844 8:2.727195 9:2.984246 10:2.024565 11:2.700253 12:2.97792 13:2.17071 14:2.60012 15:3.056958 16:0.2432296 17:-0.1771815 18:-0.9536488 
0.17872715813289344 0.27153675982040837 0.090358162557343122 1 1:2.671363 2:2.857807 3:2.842252 4:2.172419 5:2.649337 6:3.094887 7:2.119015 8:2.720967 9:3.01861 10:2.030281 11:2.743527 12:2.992874 13:2.180364 14:2.664052 15:3.052999 16:0.2432296 17:-0.1771815 18:-0.9536488 
0 0 0 1 1:2.840216 2:2.82732 3:2.841995 4:2.19615 5:2.692002 6:3.074864 7:2.135119 8:2.725392 9:3.014823 10:2.019203 11:2.802876 12:2.989688 13:2.137706 14:2.584893 15:3.001246 16:0.2432296 17:-0.1771815 18:-0.9536488 
0 0 0 1 1:2.708755 2:3.026482 3:2.912723 4:2.14622 5:2.578683 6:2.92593 7:2.094429 8:2.66045 9:2.986778 10:2.015531 11:2.745564 12:2.992683 13:2.099387 14:2.457744 15:2.985463 16:0.2432296 17:-0.1771815 18:-0.9536488 
0 0 0 1 1:2.514227 2:2.926838 3:2.94358 4:1.860977 5:2.178293 6:2.903889 7:1.845326 8:2.136555 9:2.858219 10:1.854596 11:2.354799 12:2.875898 13:1.968764 14:2.366562 15:2.800134 16:0.2432296 17:-0.1771815 18:-0.9536488 
0.1339049655066531 0.24070099490367683 0.12070084372079938 1 1:2.584371 2:2.95546 3:2.983345 4:1.810326 5:2.10912 6:2.944867 7:1.751846 8:2.111298 9:2.887108 10:1.754581 11:2.269315 12:2.873287 13:1.892842 14:2.296868 15:2.761562 16:0.2432296 17:-0.1771815 18:-0.9536488 
0.13975292113879734 0.20734854388132937 0 0 1:2.453376 2:2.898178 3:2.930142 4:1.925355 5:1.849995 6:2.836217 7:1.823205 8:1.773879 9:2.767781 10:1.841969 11:1.722868 12:2.793515 13:1.862794 14:1.829958 15:2.785881 16:0.4861467 17:-0.3181464 18:-0.8139067 
0 0 0 0.35904670135615901 1:2.494115 2:2.867149 3:2.888947 4:1.997952 5:1.686733 6:2.761911 7:1.924212 8:1.639708 9:2.585236 10:1.933235 11:1.589224 12:2.612585 13:1.976877 14:1.720744 15:2.656128 16:0.6036879 17:-0.4187944 18:-0.6783599 
0.034696350416797646 0.10872902634395958 0 0 1:2.49132 2:2.872995 3:2.924532 4:1.941878 5:1.699607 6:2.755886 7:1.859375 8:1.627607 9:2.531556 10:1.886184 11:1.525683 12:2.577069 13:1.986956 14:1.690673 15:2.616954 16:0.6876211 17:-0.4700442 18:-0.5533857 
0 0 0.82886315443206382 0 1:2.516368 2:2.83973 3:2.970557 4:2.02548 5:1.600277 6:2.678824 7:1.955034 8:1.57177 9:2.476748 10:1.970347 11:1.428713 12:2.57561 13:2.021952 14:1.53354 15:2.575185 16:0.6919242 17:-0.4931797 18:-0.5272708 
0 0.16607115099996725 0 0.24575500059787031 1:2.59563 2:2.817029 3:3.07289 4:1.994395 5:1.580238 6:2.662617 7:1.982252 8:1.518669 9:2.415504 10:2.155156 11:1.240911 12:2.516302 13:2.307266 14:1.325654 15:2.453829 16:0.6965549 17:-0.6226987 18:-0.3564513 
0 0.074633825613568197 0 0 1:2.665762 2:2.809473 3:3.037572 4:2.101118 5:1.414713 6:2.584643 7:2.090863 8:1.350847 9:2.371622 10:2.265224 11:1.114165 12:2.516933 13:2.383263 14:1.138156 15:2.521154 16:0.7020719 17:-0.6023595 18:-0.3798133 
0.31929477189797617 0 0 1 1:2.64722 2:2.815004 3:3.091063 4:2.13096 5:1.523689 6:2.635306 7:2.09965 8:1.429887 9:2.386047 10:2.267747 11:1.180214 12:2.519624 13:2.420896 14:1.243369 15:2.477369 16:0.6699407 17:-0.6526915 18:-0.3537984 
0 0 0 0.34362398614090345 1:2.779745 2:2.783732 3:2.785411 4:2.198347 5:1.35099 6:2.59144 7:2.131404 8:1.283988 9:2.318319 10:2.316252 11:1.054163 12:2.534945 13:2.53983 14:0.9800897 15:2.571792 16:0.6466139 17:-0.703053 18:-0.2959847 
0 0 0.18482400293939061 0 1:2.731413 2:2.719228 3:2.681262 4:2.249697 5:1.287961 6:2.571027 7:2.117196 8:1.262701 9:2.279965 10:2.241423 11:1.107878 12:2.507991 13:2.480124 14:1.016935 15:2.533162 16:0.5895352 17:-0.7918788 18:-0.1592989 
0 0 1 0 1:2.728208 2:2.693221 3:2.606921 4:2.264188 5:1.26876 6:2.537379 7:2.132314 8:1.223885 9:2.211623 10:2.252432 11:1.061257 12:2.454124 13:2.52036 14:0.8928819 15:2.489727 16:0.5634107 17:-0.817237 18:-0.1212111 
0.31229192002412592 0 0 0 1:2.674528 2:2.671934 3:2.619591 4:2.257216 5:1.283985 6:2.574032 7:2.171467 8:1.199743 9:2.291058 10:2.327418 11:1.00864 12:2.493891 13:2.621159 14:0.7579241 15:2.539597 16:0.5361669 17:-0.8402761 18:-0.08038178 
0 0 0.004783424600363499 0 1:2.686465 2:2.679406 3:2.649529 4:2.252443 5:1.251343 6:2.507228 7:2.12834 8:1.150719 9:2.11404 10:2.246246 11:1.026299 12:2.341901 13:2.545079 14:0.8277156 15:2.425325 16:0.5279589 17:-0.8441374 18:-0.09322691 
0 0 1 0.13291982243113867 1:2.661135 2:2.644708 3:2.596827 4:2.246601 5:1.218743 6:2.366984 7:2.11217 8:1.144403 9:1.958721 10:2.24185 11:1.003669 12:2.199559 13:2.590055 14:0.7561235 15:2.33292 16:0.5081724 17:-0.8584146 18:-0.06989419 
0 0 1 0.63247608668700916 1:2.621588 2:2.618151 3:2.530735 4:2.264732 5:1.181611 6:2.385066 7:2.120232 8:1.146671 9:2.034365 10:2.252806 11:0.9991422 12:2.274591 13:2.617047 14:0.7235525 15:2.395754 16:0.4908177 17:-0.8706851 18:-0.03170773 
0 0 1 0 1:2.629536 2:2.612559 3:2.509236 4:2.261095 5:1.161116 6:2.312422 7:2.096696 8:1.123322 9:1.934431 10:2.232435 11:0.9726067 12:2.17328 13:2.601536 14:0.7052722 15:2.319694 16:0.4864942 17:-0.8725234 18:-0.04501518 
0 0 1 0 1:2.621787 2:2.608499 3:2.472322 4:2.299324 5:1.085502 6:2.235707 7:2.116832 8:1.113531 9:1.864659 10:2.250676 11:0.9656438 12:2.121861 13:2.624878 14:0.715326 15:2.305042 16:0.4768313 17:-0.8785551 18:-0.02779983 
0 0 1 0.15966651043551086 1:2.611949 2:2.611239 3:2.496896 4:2.296252 5:1.11104 6:2.232676 7:2.107328 8:1.14624 9:1.856487 10:2.249243 11:0.9774147 12:2.115736 13:2.627483 14:0.7199382 15:2.289245 16:0.4693137 17:-0.8825514 18:-0.02911515 
0 0 1 0 1:2.628272 2:2.557057 3:2.483165 4:2.315546 5:1.077954 6:2.200213 7:2.127566 8:1.105168 9:1.796633 10:2.23988 11:0.9950504 12:2.040405 13:2.62089 14:0.7190238 15:2.256136 16:0.4643935 17:-0.8846797 18:-0.04099286 
0.11633276742345668 0 0 0 1:2.642771 2:2.520257 3:2.413823 4:2.38221 5:0.9067743 6:2.060656 7:2.139969 8:1.099011 9:1.540132 10:2.220572 11:1.013052 12:1.751763 13:2.633805 14:0.7757519 15:2.045309 16:0.4112992 17:-0.9115005 18:9.151785e-05 
0 0.044044575873493211 0 0 1:2.659527 2:2.560836 3:2.488852 4:2.414756 5:0.8873529 6:2.074291 7:2.177742 8:1.067217 9:1.560007 10:2.257193 11:0.990195 12:1.773122 13:2.642462 14:0.7836448 15:2.056678 16:0.4121294 17:-0.9102908 18:-0.03898607 
1 0.071254958939592272 0 0.04320878914139941 1:2.562544 2:2.650596 3:2.573876 4:1.996395 5:1.147594 6:2.356357 7:1.947955 8:1.11326 9:2.284425 10:2.122332 11:0.8780409 12:2.465831 13:2.349052 14:0.709662 15:2.597074 16:-0.5996556 17:-0.798983 18:0.0451585 
0.93602787287728828 0 0 0 1:2.546083 2:2.641857 3:2.492697 4:2.038022 5:1.093084 6:2.360025 7:1.974015 8:1.12039 9:2.319557 10:2.15071 11:0.8992879 12:2.482133 13:2.350718 14:0.74708 15:2.588298 16:-0.5820231 17:-0.8123844 18:0.03578838 
1 0 0 0 1:2.545204 2:2.65643 3:2.545643 4:2.02251 5:1.142117 6:2.344508 7:1.972001 8:1.138613 9:2.293589 10:2.147772 11:0.8974219 12:2.469655 13:2.367336 14:0.7269793 15:2.585177 16:-0.5746399 17:-0.8183512 18:0.009507661 
0.40945619744152223 0 0 0 1:2.529923 2:2.658395 3:2.466361 4:1.97952 5:1.138645 6:2.324843 7:1.931075 8:1.134971 9:2.292894 10:2.121423 11:0.9080003 12:2.46322 13:2.328182 14:0.7548951 15:2.570775 16:-0.5764803 17:-0.8160892 18:0.04085207 
0.61852098740470907 0 0 0 1:2.496279 2:2.673649 3:2.532185 4:1.964882 5:1.113445 6:2.299133 7:1.890031 8:1.154261 9:2.24033 10:2.072364 11:0.930692 12:2.425273 13:2.251714 14:0.8152515 15:2.544224 16:-0.5543731 17:-0.8308469 18:0.04861946 
1 0 0 0 1:2.499268 2:2.67068 3:2.571697 4:1.951087 5:1.162676 6:2.317288 7:1.898555 8:1.150569 9:2.239646 10:2.074775 11:0.917917 12:2.421229 13:2.232219 14:0.8188844 15:2.534209 16:-0.5559406 17:-0.8300917 18:0.0433342 
0 0.35404798512061553 0.0016460412905351827 0.60476151839376469 1:2.525018 2:2.791722 3:3.003742 4:2.395936 5:1.733701 6:2.486749 7:2.450663 8:1.600837 9:2.435453 10:2.537996 11:1.113668 12:2.57356 13:2.631371 14:1.221319 15:2.410153 16:-0.5846781 17:-0.8111024 18:0.01626211 
0.64505718954979274 0 0 0 1:2.550845 2:2.789694 3:2.947464 4:2.34356 5:1.607376 6:2.554961 7:2.393904 8:1.490301 9:2.530119 10:2.521024 11:1.060621 12:2.612873 13:2.622781 14:1.089198 15:2.510476 16:-0.6195053 17:-0.7843466 18:0.03183573 
0.17038556765042759 0.17789825546225541 0.04913994659494083 0.20356258307127639 1:2.575748 2:2.85424 3:3.075901 4:2.679535 5:2.667685 6:2.742077 7:2.679012 8:2.501328 9:2.406592 10:2.755729 11:2.432826 12:2.505344 13:2.742883 14:2.740019 15:2.72952 16:-0.613314 17:-0.788633 18:0.04363357 
0.1663589194548567 0.28841173202909898 0.12528554572395062 0.33793688318691223 1:2.69992 2:2.865626 3:3.114606 4:2.629674 5:2.614365 6:2.617152 7:2.608202 8:2.443077 9:2.167144 10:2.769104 11:2.298325 12:2.159752 13:2.850617 14:2.563833 15:2.187764 16:-0.6609265 17:-0.7449487 18:0.09070535 
0 0 0.0077692471134543492 0 1:2.722191 2:3.079558 3:2.5697 4:2.964181 5:2.976782 6:3.077149 7:3.081059 8:2.914329 9:3.114271 10:3.04565 11:2.894588 12:3.017219 13:2.932419 14:2.920991 15:3.056496 16:-0.5584673 17:-0.8039821 18:0.2042719 
0 0 0.047405487707568555 0.06671596319518687 1:2.720225 2:2.996082 3:2.362033 4:2.881424 5:2.918167 6:3.106519 7:3.021144 8:2.860557 9:3.048112 10:2.989145 11:2.894619 12:3.009853 13:2.993969 14:2.987549 15:3.067957 16:-0.4945099 17:-0.8691699 18:0.001901112 
0 0 0 0.04082775138545866 1:2.737246 2:3.050809 3:2.498251 4:2.942852 5:2.926396 6:3.113642 7:3.064298 8:2.874295 9:3.112525 10:3.02264 11:2.869158 12:3.04087 13:2.921401 14:2.970453 15:3.078739 16:-0.6074578 17:-0.7922397 18:0.05789167 
0 0 0.014446817156523184 0.080701455387482662 1:2.595919 2:3.063267 3:2.554984 4:2.852511 5:3.052054 6:3.032982 7:3.033507 8:3.065489 9:3.099682 10:3.128389 11:3.045962 12:3.098518 13:3.091676 14:3.062144 15:3.027766 16:-0.5116584 17:-0.8392407 18:-0.1840669 
0.083655406201469537 0 0 0 1:2.699452 2:3.067714 3:2.434339 4:2.842818 5:2.979546 6:3.065289 7:3.017692 8:2.926231 9:3.057668 10:3.003001 11:2.948208 12:3.048504 13:3.056937 14:2.981555 15:3.066941 16:-0.3421437 17:-0.9393597 18:-0.02326316 
0 0.33112927953565968 0.13674957477130381 0.40610467357989949 1:2.743493 2:2.920932 3:2.964028 4:2.714428 5:2.375866 6:2.127013 7:3.104032 8:3.009722 9:2.982017 10:3.086325 11:3.122313 12:3.072309 13:3.050768 14:3.022873 15:3.066283 16:-0.4188603 17:-0.9079526 18:0.01334422 
1 0 0 0 1:2.723579 2:3.092216 3:2.528046 4:2.860658 5:2.983748 6:3.059117 7:2.999586 8:2.923301 9:3.066624 10:2.978652 11:2.957541 12:3.047699 13:3.04063 14:2.993191 15:3.049846 16:-0.3511606 17:-0.9310992 18:-0.09869449 
0.19900195672307847 0.47158710623510819 0.097029538375334276 0.47417386507548881 1:2.852903 2:2.938905 3:3.037587 4:2.860765 5:2.993517 6:3.080852 7:2.52457 8:2.987984 9:2.990878 10:2.449083 11:2.665666 12:2.821365 13:2.64079 14:2.871877 15:3.009272 16:-0.4797761 17:-0.8659215 18:-0.1414032 
1 0 0 0 1:2.525187 2:2.866822 3:2.880706 4:2.820977 5:2.911209 6:2.937903 7:3.09457 8:2.987481 9:3.022501 10:3.105862 11:3.042345 12:3.050784 13:3.062354 14:3.069747 15:3.084245 16:-0.2420451 17:-0.9656872 18:-0.09414033 
0.94882900607241771 0 0 0 1:2.521252 2:2.986902 3:2.875424 4:2.84327 5:2.728354 6:2.840477 7:3.076656 8:2.920879 9:3.095515 10:3.073048 11:2.994639 12:3.098912 13:3.052808 14:3.017301 15:3.079162 16:-0.2420451 17:-0.9656872 18:-0.09414033 
0.31650639589946272 0 0 0 1:2.693398 2:3.058082 3:2.686578 4:2.814121 5:2.988113 6:3.053797 7:2.964167 8:2.932918 9:3.029475 10:2.96605 11:2.957073 12:3.044826 13:3.047737 14:2.997298 15:3.035769 16:-0.3291108 17:-0.9416015 18:-0.07122245 
0.14987647354246941 0 0 0 1:2.695456 2:3.019093 3:2.747499 4:3.03062 5:3.007226 6:3.133225 7:3.005875 8:3.004685 9:3.094765 10:3.116403 11:2.976936 12:3.131387 13:3.111434 14:3.036373 15:3.042861 16:-0.4561456 17:-0.8401887 18:-0.2932817 
0 0.43386465047532519 0 0 1:2.681902 2:3.059117 3:2.834231 4:2.939565 5:3.047751 6:3.096533 7:2.991161 8:3.038756 9:3.067689 10:3.072172 11:3.008477 12:3.086403 13:3.104603 14:3.021379 15:3.033614 16:-0.5146556 17:-0.7956236 18:-0.3195508 
0 0 0.025763878907408302 0.16304651874179485 1:2.663081 2:3.047135 3:2.88283 4:3.028033 5:3.046231 6:3.130804 7:3.024317 8:3.040464 9:3.103748 10:3.09385 11:2.992125 12:3.109699 13:3.120341 14:2.97533 15:3.044852 16:-0.5230272 17:-0.7966977 18:-0.3028453 
0 0 0.030728383278930897 0 1:2.721113 2:3.00041 3:2.989203 4:2.937833 5:3.035188 6:3.087465 7:3.035108 8:2.969973 9:3.110949 10:3.076564 11:2.914614 12:3.098599 13:3.121799 14:2.964677 15:3.091378 16:-0.6662745 17:-0.7453874 18:-0.02181528 
0.1713987661204282 0.2614431337186558 0.10989201758257491 0.21194002175367407 1:2.686529 2:2.785387 3:2.973463 4:2.477433 5:1.579889 6:2.621403 7:2.552504 8:1.613791 9:2.436019 10:2.705134 11:1.744303 12:2.177193 13:2.830793 14:2.488338 15:1.581477 16:-0.5298526 17:-0.8437788 18:-0.08540162 
0.028134125761739806 0.11362614485563927 0.049152098632764658 0.29235813598574723 1:2.651079 2:2.770816 3:2.926246 4:2.43843 5:1.476096 6:2.617514 7:2.477733 8:1.632529 9:2.437806 10:2.637761 11:1.733197 12:2.20999 13:2.803885 14:2.512613 15:1.771786 16:-0.5138315 17:-0.8578402 18:-0.009356301 
0.85900963706987754 0.040368808566348474 0 0.098553573784895904 1:2.692541 2:2.716396 3:2.542907 4:2.24626 5:1.111367 6:2.577765 7:2.170416 8:1.261984 9:2.648838 10:2.353342 11:0.9683929 12:2.691887 13:2.687142 14:1.059522 15:2.479558 16:-0.5246341 17:-0.8513141 18:0.004831153 
0 0 0 0.1433681433624315 1:2.448828 2:2.560758 3:2.194326 4:1.916589 5:1.196899 6:2.101814 7:1.844818 8:1.196466 9:2.07597 10:1.939553 11:1.076604 12:2.314573 13:2.226145 14:0.8637893 15:2.508822 16:-0.5382254 17:-0.8318108 18:0.135662 
0.060271238576541188 0.02493860921156504 0 0.075715810070443215 1:2.481648 2:2.548398 3:2.17258 4:1.919941 5:1.245934 6:2.041569 7:1.849537 8:1.225437 9:2.117244 10:1.945832 11:1.095776 12:2.342664 13:2.219429 14:0.8867877 15:2.556604 16:-0.5818828 17:-0.8112677 18:-0.05707081 
0 0.21193408941411224 0 0.29170034715131588 1:2.663373 2:2.48827 3:2.179194 4:2.466341 5:0.4928398 6:2.636999 7:2.339195 8:0.7736516 9:2.491487 10:2.370176 11:0.7148241 12:2.580411 13:2.597117 14:0.6859008 15:2.618687 16:-0.6023401 17:-0.7965929 18:-0.05124597 
0 0.2640526548200714 0.51788407260284386 0.27220853393250405 1:2.464096 2:2.533982 3:2.13186 4:1.919181 5:1.144277 6:2.00295 7:1.822628 8:1.182737 9:1.97069 10:1.909 11:1.092479 12:2.217127 13:2.173247 14:0.8769104 15:2.46493 16:-0.5938274 17:-0.8026882 18:-0.05532344 
0 0 0.059695022830409873 0 1:2.646638 2:2.491157 3:2.212875 4:2.464151 5:0.5300741 6:2.652198 7:2.340629 8:0.7962419 9:2.532726 10:2.36478 11:0.7459674 12:2.605382 13:2.564461 14:0.746242 15:2.620299 16:-0.5938274 17:-0.8026882 18:-0.05532344 
0.13346058473224398 0.14141313518852114 0 0.10104418367998882 1:2.618866 2:2.478621 3:2.153808 4:2.48231 5:0.5158821 6:2.662972 7:2.34398 8:0.8101844 9:2.555681 10:2.363131 11:0.7656143 12:2.612637 13:2.565094 14:0.7516776 15:2.623769 16:-0.5365368 17:-0.8312008 18:0.1457169 
-1 0 0 0 1:2.719 2:2.617271 3:2.349166 4:2.300844 5:0.9413651 6:1.82111 7:2.055558 8:1.111752 9:1.419297 10:2.104126 11:1.108862 12:1.566205 13:2.400352 14:0.9436789 15:1.873962 16:0.584646 17:-0.8110625 18:-0.01914525 
-1 0.3928090638254253 0 0 1:2.723937 2:2.615466 3:2.353326 4:2.275844 5:0.9530424 6:1.857525 7:2.011543 8:1.161016 9:1.397344 10:2.057469 11:1.157696 12:1.511344 13:2.337122 14:1.021849 15:1.829789 16:0.5948772 17:-0.803268 18:-0.02969119 
-1 0 1 0 1:2.718523 2:2.622411 3:2.389238 4:2.241012 5:1.004721 6:1.875725 7:2.005981 8:1.173653 9:1.419705 10:2.047166 11:1.171861 12:1.54226 13:2.331947 14:1.005751 15:1.870402 16:0.5823026 17:-0.8121356 18:-0.03687007 
-1 0 1 0 1:2.709166 2:2.623869 3:2.355102 4:2.251168 5:0.9711697 6:1.861246 7:2.008116 8:1.157108 9:1.419481 10:2.060854 11:1.145277 12:1.544969 13:2.358256 14:0.9761233 15:1.874926 16:0.5847138 17:-0.8109659 18:-0.02107646 
-1 0 0.8650082272086107 0 1:2.708221 2:2.618869 3:2.331847 4:2.287479 5:0.9411675 6:1.846404 7:2.036491 8:1.125413 9:1.423566 10:2.090319 11:1.11759 12:1.55571 13:2.38872 14:0.9608237 15:1.878616 16:0.5856792 17:-0.810432 18:-0.01341641 
-1 0 1 0.48613020989041239 1:2.699287 2:2.624072 3:2.361952 4:2.229017 5:1.033071 6:1.89095 7:1.996023 8:1.17591 9:1.466286 10:2.061859 11:1.14022 12:1.639219 13:2.363932 14:0.9403239 15:1.960569 16:0.591061 17:-0.8065622 18:-0.01021465 
-1 0.56378348714702409 1 1 1:2.685972 2:2.621017 3:2.385841 4:2.270516 5:1.024065 6:1.944128 7:2.047473 8:1.148676 9:1.493967 10:2.116008 11:1.108912 12:1.688635 13:2.423796 14:0.9008069 15:2.025141 16:0.5848712 17:-0.8107573 18:-0.02445721 
-1 0.29594736152615769 1 1 1:2.694869 2:2.607599 3:2.355825 4:2.266807 5:0.9997739 6:1.907408 7:2.035759 8:1.127744 9:1.495291 10:2.111325 11:1.087602 12:1.687963 13:2.43436 14:0.8701783 15:2.009509 16:0.598799 17:-0.8003111 18:-0.03068947 
-1 1 1 1 1:2.625324 2:2.620062 3:2.477624 4:2.323038 5:1.2078 6:2.586777 7:2.216645 8:1.162467 9:2.399306 10:2.374628 11:1.015643 12:2.57202 13:2.675347 14:0.7349042 15:2.604227 16:0.5949222 17:-0.8035631 18:-0.01881266 
-1 1 0.59680524381834477 1 1:2.499745 2:2.770006 3:2.816562 4:2.471623 5:1.889693 6:2.387886 7:2.393338 8:1.463634 9:2.576484 10:2.530017 11:1.235126 12:2.547814 13:2.668274 14:1.119789 15:2.494322 16:0.6161149 17:-0.7849344 18:-0.06542384 
-1 0 0 0 1:2.546113 2:2.940418 3:3.032727 4:2.75004 5:2.749631 6:2.891064 7:2.660602 8:2.646463 9:2.69856 10:2.781473 11:2.662281 12:2.792903 13:2.777967 14:2.863134 15:3.002328 16:0.6047347 17:-0.7877304 18:0.1173748 
-1 0.9585477067996202 0.48627772059822783 1 1:2.634596 2:2.913117 3:3.136188 4:2.750664 5:2.703909 6:2.770943 7:2.658181 8:2.575138 9:2.566159 10:2.810048 11:2.607453 12:2.641814 13:2.881496 14:2.794167 15:2.883884 16:0.6734057 17:-0.7385898 18:0.03177824 
-0.77372486876160496 0 0 0 1:2.552006 2:3.053502 3:2.867614 4:2.934188 5:3.041578 6:3.012374 7:3.09802 8:2.969716 9:3.06512 10:3.02229 11:3.048541 12:3.07369 13:2.979861 14:3.118463 15:2.996731 16:0.6520675 17:-0.7578368 18:-0.02216601 
-0.72900429909683706 0 0 0 1:2.646052 2:3.055181 3:2.843999 4:2.982331 5:3.026086 6:3.043115 7:3.104413 8:2.956954 9:3.075007 10:2.993806 11:3.007881 12:3.08607 13:2.823985 14:3.043661 15:3.026218 16:0.8648737 17:-0.4606867 18:-0.1994019 
-1 0 0 0 1:2.63825 2:3.047565 3:2.853443 4:2.983568 5:3.044918 6:3.024959 7:3.091572 8:2.972925 9:3.044556 10:2.978551 11:3.029923 12:3.072408 13:2.829022 14:3.039371 15:3.033642 16:0.8561946 17:-0.5166091 18:0.006784786 
-0.28684539881416138 0 0 0 1:2.535214 2:2.990699 3:2.769561 4:3.065024 5:3.072932 6:2.947313 7:3.056031 8:2.990666 9:3.035575 10:3.011475 11:2.981935 12:3.069441 13:2.78807 14:3.084117 15:3.047867 16:0.7072439 17:-0.7012367 18:-0.08985068 
-1 0 0 0 1:2.523201 2:2.978271 3:2.812998 4:3.076277 5:3.089319 6:2.992767 7:3.046694 8:2.979892 9:3.070733 10:3.036134 11:2.925812 12:3.09991 13:2.780166 14:3.108152 15:3.07203 16:0.7406896 17:-0.6717394 18:-0.01204893 
-1 0 0 0 1:2.500154 2:2.986027 3:2.776364 4:3.067205 5:3.111671 6:2.97032 7:3.03888 8:2.992161 9:3.074687 10:3.049724 11:2.961141 12:3.087775 13:2.808938 14:3.125786 15:3.05876 16:0.6890409 17:-0.7219008 18:-0.06388979 
-1 0 0 0 1:2.639134 2:3.098651 3:2.890269 4:2.970594 5:3.005045 6:3.024297 7:3.129212 8:3.032863 9:3.095316 10:3.07958 11:3.081788 12:3.071526 13:3.039265 14:3.101999 15:2.995764 16:0.7975426 17:-0.5448437 18:-0.2589809 
-1 0 0 0 1:2.83266 2:2.902325 3:2.516552 4:3.094618 5:2.96275 6:2.923252 7:3.110307 8:2.928907 9:3.059757 10:3.021436 11:2.978936 12:2.983235 13:2.935383 14:2.97287 15:3.00384 16:0.549711 17:-0.8172269 18:-0.1730841 
-1 0.32593958743682561 0.18651040116629169 0.33837183100935714 1:2.870875 2:2.918051 3:2.52391 4:3.08371 5:2.892895 6:2.9588 7:3.0591 8:2.906729 9:3.060591 10:3.001827 11:3.009416 12:3.002524 13:2.942011 14:2.930407 15:3.043558 16:0.395639 17:-0.8985474 18:-0.1899535 
-0.0095734468066650934 0 0 0 1:2.533018 2:2.956131 3:2.708582 4:3.025028 5:3.073699 6:2.979143 7:3.105489 8:3.036409 9:3.062868 10:3.076142 11:2.988919 12:3.050574 13:2.992388 14:3.108366 15:3.013098 16:0.309489 17:-0.9301839 18:-0.1974196 
-1 0 0 0 1:2.543959 2:3.06644 3:2.771412 4:2.957 5:3.081062 6:3.022019 7:3.121022 8:2.984431 9:3.105319 10:3.092259 11:3.048521 12:3.06403 13:3.015789 14:3.13262 15:3.033954 16:0.3121701 17:-0.9296469 18:-0.1957203 
-1 0.33688915461303587 0.28488201114743061 0.5374153200547217 1:2.44765 2:3.088029 3:2.733324 4:2.934604 5:3.094231 6:3.026125 7:3.084918 8:3.053329 9:3.092562 10:3.106063 11:3.059839 12:3.0711 13:3.023678 14:3.116334 15:3.029088 16:0.3163304 17:-0.9239943 18:-0.2148711 
-1 0 0 0 1:2.59887 2:3.115332 3:2.96769 4:2.908833 5:3.05936 6:3.079782 7:3.105491 8:3.099887 9:3.109584 10:3.001409 11:3.075428 12:3.027617 13:2.955554 14:3.04174 15:2.978595 16:0.3454054 17:-0.9176584 18:-0.1964637 
-1 0.48637218881294736 0.11538420356477777 0.29261619283212936 1:2.746507 2:3.076102 3:2.922834 4:2.911116 5:3.085069 6:3.036911 7:2.887888 8:3.110421 9:3.072647 10:2.821162 11:2.970219 12:2.875645 13:2.628297 14:2.813121 15:2.888316 16:0.5313398 17:-0.8315341 18:-0.1619538 
-0.42630287911575471 0 0 0 1:2.664085 2:3.101109 3:3.062738 4:2.941227 5:3.052067 6:3.096219 7:3.056124 8:3.068929 9:3.081537 10:2.992123 11:2.983778 12:2.965031 13:2.980775 14:3.012172 15:3.089559 16:0.7104536 17:-0.6594086 18:-0.2458373 
-0.0067209968388615079 0 0 0 1:2.598368 2:3.002998 3:2.903052 4:3.008964 5:3.029867 6:2.985303 7:3.082695 8:2.950649 9:3.054918 10:3.055634 11:2.990635 12:3.054736 13:2.983829 14:3.059995 15:3.042123 16:0.7209564 17:-0.6898458 18:0.06583727 
-0.16945632652001846 0 0 0 1:2.439874 2:3.034128 3:2.822214 4:3.095803 5:3.094734 6:2.935053 7:3.000932 8:2.940343 9:3.057149 10:3.041867 11:2.96409 12:3.114012 13:2.932902 14:3.063669 15:3.073759 16:0.7307391 17:-0.6788213 18:-0.07226291 
-0 0.55404507631929834 0 0 1:2.679332 2:3.064715 3:3.097012 4:2.891658 5:3.044653 6:3.072618 7:3.083476 8:3.069505 9:3.085276 10:3.000311 11:3.040915 12:3.010978 13:2.998634 14:3.004411 15:2.906155 16:0.4752487 17:-0.8347892 18:-0.2779669 
-0.0040829914058055916 0 0 0 1:2.702404 2:3.108242 3:2.986345 4:2.897336 5:3.059163 6:3.06273 7:2.949691 8:3.030211 9:3.088734 10:2.898466 11:3.066399 12:2.989797 13:2.832056 14:2.931501 15:3.03696 16:0.5333548 17:-0.8322573 18:-0.1512631 
-0.46141928315529529 0 0 0 1:2.579025 2:2.991658 3:2.844569 4:3.002426 5:3.011222 6:3.02263 7:3.037581 8:2.945498 9:3.092601 10:3.044075 11:3.016577 12:3.023572 13:3.004955 14:3.101339 15:2.975478 16:0.8339132 17:-0.5367733 18:-0.1283088 
-1 0 0 0 1:2.493819 2:3.006509 3:2.77756 4:3.082992 5:3.065338 6:2.925488 7:3.00934 8:2.953281 9:3.046292 10:3.040786 11:2.970659 12:3.090957 13:2.940437 14:3.078314 15:3.063756 16:0.7089077 17:-0.7043096 18:0.03738719 
-0.50852115510134732 0 0 0 1:2.435141 2:3.056016 3:2.745664 4:3.119071 5:3.080643 6:2.946882 7:3.030879 8:3.000641 9:3.051764 10:3.065883 11:3.023354 12:3.095427 13:2.955173 14:3.02389 15:3.061783 16:0.6600162 17:-0.745944 18:-0.08914115 
-0.34688214585623239 0 0 0 1:2.734859 2:2.968245 3:2.567435 4:3.04256 5:2.959521 6:2.919278 7:3.110849 8:2.9735 9:3.04714 10:3.023955 11:3.077699 12:3.008921 13:2.937491 14:2.932448 15:3.026238 16:0.546446 17:-0.8151292 18:-0.1922527 
-0.67109627559555474 0 0 0 1:2.616833 2:3.097599 3:2.885541 4:2.983479 5:3.053169 6:3.014701 7:3.130797 8:3.074313 9:3.099755 10:3.082525 11:3.107884 12:3.082711 13:3.052262 14:3.123178 15:3.038832 16:0.7059444 17:-0.6890437 18:-0.163894 
-0.29701637108156609 0 0 0 1:2.545084 2:3.024787 3:2.897665 4:3.044456 5:3.007669 6:3.018816 7:3.04729 8:2.887873 9:3.061955 10:3.014616 11:2.914467 12:3.124002 13:2.896295 14:3.073465 15:3.085924 16:0.847957 17:-0.5216359 18:-0.09415315 
-0 0.38679220796101588 0 0 1:2.627708 2:3.001725 3:2.834722 4:3.035637 5:3.036972 6:3.045342 7:3.064122 8:2.942219 9:3.078712 10:3.072421 11:2.989182 12:3.027805 13:2.95935 14:3.040297 15:2.985446 16:0.9039507 17:-0.3751762 18:-0.2052218 
-0 0 0.22637717773892996 0.34329470601337592 1:2.628242 2:3.011404 3:2.932829 4:3.030359 5:3.027295 6:3.042675 7:3.077634 8:2.877927 9:3.065886 10:3.063584 11:2.88708 12:3.108494 13:2.882281 14:2.972854 15:3.024194 16:0.9271625 17:-0.3746448 18:0.003308442 
-1 0 0 0 1:2.4897 2:2.988994 3:2.897103 4:3.103038 5:3.123107 6:2.966955 7:2.983546 8:2.914118 9:3.051437 10:3.033558 11:2.921632 12:3.133308 13:2.825016 14:3.111672 15:3.046585 16:0.8661298 17:-0.4990725 18:-0.02730946 
-1 0 0 0 1:2.5754 2:3.086061 3:2.875486 4:2.954255 5:3.057173 6:3.005533 7:3.103079 8:3.087126 9:3.087301 10:3.052926 11:3.115776 12:3.088557 13:3.018121 14:3.128073 15:3.037946 16:0.6614091 17:-0.7318922 18:-0.1639265 
-0.90874957905054865 0 0 0 1:2.627795 2:3.096608 3:2.893698 4:2.956744 5:3.038515 6:3.003447 7:3.103935 8:3.092369 9:3.06863 10:3.043081 11:3.120139 12:3.045952 13:2.989915 14:3.087276 15:2.960797 16:0.7693101 17:-0.5775894 18:-0.2730428 
-1 0 0 0 1:2.635877 2:3.014338 3:2.842899 4:2.980718 5:3.039381 6:3.002045 7:3.071687 8:2.967268 9:3.094585 10:3.061125 11:3.034176 12:3.044762 13:2.983496 14:3.099066 15:3.010517 16:0.8699391 17:-0.4337799 18:-0.2346077 
-0 0.030715070206465862 0.085438220091605926 0.26904535714906896 1:2.646033 2:2.998739 3:2.894259 4:2.958032 5:3.032438 6:3.012429 7:3.066431 8:2.956716 9:3.083815 10:3.014566 11:3.03512 12:3.056777 13:2.974058 14:3.067185 15:3.017814 16:0.9157614 17:-0.3718088 18:-0.1521161 
-1 0 0 0 1:2.525759 2:3.027656 3:2.763352 4:3.002301 5:3.073566 6:3.030182 7:3.104323 8:2.967803 9:3.086106 10:3.118057 11:3.043501 12:3.068001 13:3.013423 14:3.101704 15:3.037933 16:0.3178876 17:-0.9328117 18:-0.169735 
-1 0 0 0 1:2.522992 2:3.009257 3:2.692865 4:2.942554 5:3.049743 6:3.042131 7:3.111064 8:2.93889 9:3.116999 10:3.081 11:3.03703 12:3.075051 13:3.036074 14:3.131342 15:3.026886 16:0.3230945 17:-0.9326413 18:-0.1605929 
-1 0 0 0 1:2.511068 2:3.018096 3:2.743054 4:2.989999 5:3.070757 6:3.029078 7:3.1215 8:2.933761 9:3.102217 10:3.097703 11:3.011986 12:3.062246 13:3.0467 14:3.106623 15:3.035216 16:0.3375042 17:-0.9219372 18:-0.1900598 
-1 0 0 0 1:2.463435 2:3.074629 3:2.775579 4:2.965199 5:3.087743 6:3.040308 7:3.125978 8:2.989817 9:3.114079 10:3.114348 11:3.057755 12:3.079736 13:3.031823 14:3.133622 15:3.019096 16:0.3188064 17:-0.9327398 18:-0.1684013 
-0.71129474117934766 0 0 0 1:2.635838 2:3.086805 3:2.920095 4:2.956367 5:3.045744 6:3.01046 7:3.118745 8:3.069333 9:3.07901 10:3.090164 11:3.106875 12:3.084444 13:3.032029 14:3.104317 15:3.036665 16:0.737138 17:-0.6348599 18:-0.2314746 
-1 0 0 0 1:2.63232 2:3.028743 3:2.845804 4:2.968309 5:3.026111 6:3.009625 7:3.088075 8:2.989784 9:3.071962 10:3.045515 11:3.067716 12:3.073195 13:2.993846 14:3.102806 15:3.037939 16:0.8225178 17:-0.551266 18:-0.1398945 
-1 0.80517510941002923 1 1 1:2.521593 2:2.682698 3:2.533467 4:1.978702 5:1.088551 6:2.279405 7:1.908729 8:1.135125 9:2.193314 10:2.095925 11:0.9043446 12:2.392505 13:2.280521 14:0.7678854 15:2.519457 16:-0.5628126 17:-0.8258789 18:0.0341468 
-1 0 0.053687466004177412 0.11402633494980627 1:2.532649 2:2.675319 3:2.553016 4:1.937431 5:1.154709 6:2.323013 7:1.89658 8:1.144395 9:2.272655 10:2.08709 11:0.8952057 12:2.429357 13:2.293547 14:0.7544651 15:2.553014 16:-0.5577387 17:-0.8297336 18:0.02167214 
-1 0 0 0 1:2.529487 2:2.675932 3:2.546009 4:1.946534 5:1.14309 6:2.331056 7:1.902543 8:1.151201 9:2.302193 10:2.094404 11:0.9052883 12:2.449788 13:2.29203 14:0.7722505 15:2.564173 16:-0.5641969 17:-0.8240185 18:0.05172471 
-1 0 0 0 1:2.545437 2:2.687284 3:2.536811 4:2.037594 5:1.06645 6:2.340742 7:1.964369 8:1.1472 9:2.310108 10:2.11082 11:0.9175482 12:2.450295 13:2.36712 14:0.7632595 15:2.577127 16:-0.5684922 17:-0.8212781 18:0.04815618 
-1 0 0 0 1:2.536267 2:2.710128 3:2.599834 4:2.158739 5:1.248336 6:2.489761 7:2.111221 8:1.261064 9:2.545711 10:2.212077 11:1.00239 12:2.620104 13:2.44565 14:0.8830487 15:2.631201 16:-0.5845301 17:-0.8101186 18:0.04508362 
-1 0.8615912979855509 0.087789898263193861 0.91488576730304427 1:2.54058 2:2.724668 3:2.616104 4:2.210782 5:1.30972 6:2.516364 7:2.185087 8:1.242316 9:2.604149 10:2.259678 11:0.9707542 12:2.687973 13:2.475463 14:0.8734642 15:2.659299 16:-0.6018402 17:-0.7979537 18:0.03252974 
-1 -1 1 1 1:2.623099 2:2.620693 3:2.537161 4:2.24306 5:1.193153 6:2.521867 7:2.110163 8:1.119597 9:2.31814 10:2.255114 11:0.9595123 12:2.478845 13:2.643799 14:0.598688 15:2.582434 16:0.6285168 17:-0.7773638 18:0.02592436 
-1 -0.0020258576046661551 0.2991139013447659 0.34061211229758315 1:2.611435 2:2.608227 3:2.533124 4:2.257145 5:1.166082 6:2.511896 7:2.107065 8:1.129266 9:2.337587 10:2.236313 11:0.9809042 12:2.486279 13:2.639172 14:0.5958614 15:2.593091 16:0.6279501 17:-0.7771243 18:0.04191089 
-1 -0.57613306020112554 1 1 1:2.627758 2:2.615335 3:2.579925 4:2.256875 5:1.161799 6:2.529649 7:2.118783 8:1.098762 9:2.290762 10:2.255816 11:0.9517524 12:2.463102 13:2.626695 14:0.590506 15:2.567492 16:0.6286727 17:-0.7756246 18:0.05636619 
-1 -0 0.22273816360284757 0 1:2.62611 2:2.607197 3:2.559657 4:2.265365 5:1.139483 6:2.533974 7:2.126228 8:1.0899 9:2.29142 10:2.264231 11:0.9366774 12:2.462903 13:2.633777 14:0.576874 15:2.56988 16:0.6275387 17:-0.7740379 18:0.08402681 
-1 -1 0 0.81372605584520152 1:2.589077 2:2.611955 3:2.6007 4:2.332617 5:1.29444 6:2.560151 7:2.30626 8:1.060968 9:2.604261 10:2.336785 11:1.044409 12:2.631976 13:2.615355 14:0.7684325 15:2.688842 16:0.6277851 17:-0.7736948 18:0.0853358 
-1 -1 0.59744002577673627 1 1:2.469571 2:2.580777 3:2.580611 4:2.471594 5:2.587605 6:2.07882 7:2.582483 8:1.841123 9:2.273688 10:2.373321 11:1.193427 12:2.675582 13:2.476756 14:0.9834743 15:2.743258 16:0.630809 17:-0.7758731 18:0.01004852 
-0.85103149182301918 -0.27249613627661412 0.19828719620677285 0.34041566102539966 1:2.476907 2:2.579141 3:2.743561 4:2.705409 5:2.888014 6:2.963754 7:2.609026 8:2.696251 9:2.553292 10:2.315241 11:1.337567 12:2.697457 13:2.462763 14:1.148404 15:2.8317 16:0.6413596 17:-0.7662174 18:-0.03960627 
-0.080572936562862171 -0.1235435028586578 0.091265248664419846 0.20996757675196609 1:2.523245 2:2.585834 3:2.745432 4:2.679729 5:2.87431 6:2.934103 7:2.626831 8:2.696038 9:2.554143 10:2.34375 11:1.294485 12:2.694713 13:2.524029 14:1.062522 15:2.832733 16:0.6116493 17:-0.7909274 18:-0.01785778 
-1 -0.23364570767271867 0.17656043608638447 0.31803789306335123 1:2.795002 2:2.031636 3:2.949763 4:2.831472 5:3.101902 6:2.843426 7:2.731627 8:2.99873 9:3.009981 10:2.416315 11:1.749121 12:2.644115 13:2.334491 14:1.835967 15:2.785475 16:-0.1150699 17:-0.9661757 18:-0.230789 
-0.21754853788321105 -0.17106445663527747 0.1320270396901298 0.23533272992798729 1:2.687259 2:2.268182 3:2.636509 4:3.010588 5:2.922906 6:2.809351 7:2.899291 8:2.99703 9:3.046992 10:2.297626 11:1.511459 12:2.827605 13:2.157738 14:1.565288 15:2.893158 16:-0.1503732 17:-0.8807719 18:-0.4490311 
-0.97911248254679795 -0 0 0 1:2.554289 2:2.113381 3:2.91604 4:2.92443 5:3.058236 6:2.942581 7:2.928268 8:3.088413 9:2.921205 10:2.319779 11:1.565273 12:2.64548 13:2.551945 14:1.475064 15:2.528936 16:0.4516504 17:-0.8826182 18:-0.1303722 
-0.25263153347562872 -0 0 0 1:2.514004 2:2.054101 3:2.870877 4:2.903141 5:3.015309 6:2.930093 7:2.915367 8:3.063419 9:2.912857 10:2.227097 11:1.61872 12:2.617745 13:2.475608 14:1.543257 15:2.515656 16:0.5226647 17:-0.830911 18:-0.1908105 
-0.52825309808117715 -0 0 0 1:2.572732 2:1.978855 3:2.848059 4:2.971069 5:3.000579 6:2.905226 7:2.945033 8:3.05605 9:2.980578 10:2.11653 11:1.74789 12:2.692307 13:2.374139 14:1.608263 15:2.621825 16:0.5419488 17:-0.8264032 18:-0.1528046 
-0.16406133815117233 -0 0 0 1:2.526239 2:1.990817 3:2.792835 4:2.916095 5:3.007461 6:2.910567 7:2.892421 8:3.031876 9:2.900008 10:2.143802 11:1.684996 12:2.59442 13:2.392503 14:1.614864 15:2.488249 16:0.5197461 17:-0.8407705 18:-0.1515552 
-1 -0 0 0 1:2.642333 2:2.006754 3:2.808077 4:2.977578 5:3.021723 6:2.893649 7:2.954266 8:3.038662 9:2.958903 10:2.211583 11:1.742051 12:2.702138 13:2.406405 14:1.696811 15:2.601599 16:0.5562274 17:-0.7975658 18:-0.2334524 
-1 -0 0 0 1:2.588007 2:2.02786 3:2.836981 4:2.987621 5:3.029428 6:2.881694 7:2.971627 8:3.064977 9:2.974771 10:2.244819 11:1.72302 12:2.716756 13:2.481005 14:1.622701 15:2.634829 16:0.543612 17:-0.8088889 18:-0.2240195 
-0.10712317809568972 -0 0 0 1:2.599287 2:2.032902 3:2.855038 4:2.97502 5:3.031648 6:2.857831 7:2.960793 8:3.064357 9:2.930933 10:2.227616 11:1.700765 12:2.673134 13:2.488846 14:1.564946 15:2.596256 16:0.5457093 17:-0.8027865 18:-0.2402814 
-1 -0 0 0 1:2.586077 2:2.049185 3:2.841774 4:3.006408 5:3.042255 6:2.869168 7:2.98368 8:3.089211 9:2.972941 10:2.228623 11:1.736934 12:2.706618 13:2.489112 14:1.583645 15:2.648042 16:0.5432897 17:-0.8175926 18:-0.1907321 
-1 -0 0 0 1:2.565465 2:2.023862 3:2.769491 4:3.020011 5:3.025224 6:2.909661 7:2.95473 8:3.054523 9:2.958198 10:2.254239 11:1.720787 12:2.681478 13:2.424294 14:1.709888 15:2.527511 16:0.516496 17:-0.8305773 18:-0.2082621 
-0.043631226962111955 -0 0 0 1:2.551948 2:2.027794 3:2.797686 4:2.992559 5:3.020393 6:2.898733 7:2.948603 8:3.045942 9:2.959909 10:2.275545 11:1.680161 12:2.682657 13:2.439389 14:1.668091 15:2.534683 16:0.5073479 17:-0.832231 18:-0.2235835 
-0.16061117467058889 -0 0 0 1:2.551061 2:2.029284 3:2.828981 4:2.988107 5:3.011314 6:2.894662 7:2.945714 8:3.06167 9:2.958947 10:2.289062 11:1.66294 12:2.683311 13:2.478727 14:1.625685 15:2.551206 16:0.510156 17:-0.8297241 18:-0.2264925 
-0.4574597777652385 -0 0 0 1:2.46764 2:1.80728 3:2.752583 4:2.746998 5:3.063344 6:2.932309 7:2.896713 8:3.108635 9:3.00638 10:2.400965 11:1.263439 12:2.685968 13:2.628857 14:1.084149 15:2.66138 16:-0.1501828 17:-0.966064 18:-0.2101556 
-0 -0.30148253951118859 0.22497469417398916 0.38321655678072208 1:2.470033 2:1.836827 3:2.794568 4:2.789547 5:3.076538 6:2.947339 7:2.926458 8:3.132294 9:3.014105 10:2.430619 11:1.2831 12:2.686449 13:2.681264 14:1.072121 15:2.671677 16:-0.1444356 17:-0.9692041 18:-0.1994538 
-0.65051716189671005 -0.3826255727531348 0.29063875653784321 0.49778561067378596 1:2.611597 2:2.39445 3:2.881311 4:2.759084 5:2.986117 6:2.852825 7:2.736242 8:2.94295 9:3.005646 10:2.755574 11:1.051641 12:2.932885 13:2.649891 14:1.106306 15:2.99254 16:-0.01011746 17:-0.9788821 18:-0.2041754 
-1 -0.87320105893360012 0.47504768504547545 0.90945472518359305 1:2.915262 2:2.722766 3:3.049262 4:2.728083 5:3.054348 6:3.006116 7:2.992561 8:3.041932 9:2.919635 10:3.004523 11:2.273641 12:2.331448 13:2.804288 14:2.23684 15:2.979448 16:0.2259896 17:-0.6003003 18:-0.7671821 
-1 -1 0.54431148323017908 1 1:2.774451 2:2.929386 3:3.101735 4:2.675949 5:3.055685 6:3.02555 7:2.886295 8:3.087219 9:2.935918 10:2.904582 11:2.98602 12:2.890549 13:2.89614 14:2.98673 15:2.863264 16:0.2259896 17:-0.6003003 18:-0.7671821 
-0.24030784740430211 -0.15128225995242461 0.11845552518854288 0.19552643564403152 1:2.462133 2:1.963738 3:2.831389 4:2.781968 5:3.118346 6:2.940754 7:2.872004 8:3.13691 9:2.968654 10:2.323566 11:1.383673 12:2.696209 13:2.64882 14:1.176126 15:2.676845 16:0.2259896 17:-0.6003003 18:-0.7671821 
-0.6360795145872743 -0.22575227919171223 0.17310921503742085 0.31349908428793227 1:2.239442 2:2.060713 3:2.881437 4:2.893056 5:2.966908 6:2.922518 7:2.721507 8:2.955828 9:2.724429 10:2.327864 11:1.523469 12:2.53776 13:2.440125 14:1.348198 15:2.530108 16:0.2259896 17:-0.6003003 18:-0.7671821 
-0.52465076363249763 -0 0 0 1:2.608573 2:1.968994 3:2.85118 4:2.932426 5:3.00765 6:2.903767 7:2.909488 8:3.041698 9:2.9386 10:2.160479 11:1.658563 12:2.666062 13:2.385208 14:1.588069 15:2.558132 16:0.5764602 17:-0.792055 18:-0.2008545 
-1 -0 0 0 1:2.567407 2:1.949607 3:2.788679 4:2.872903 5:2.996575 6:2.882648 7:2.843166 8:2.996208 9:2.853683 10:2.076523 11:1.729591 12:2.56135 13:2.337252 14:1.659749 15:2.458206 16:0.5775892 17:-0.7917114 18:-0.1989564 
-0.37918851792901748 -0 0 0 1:2.59478 2:1.931121 3:2.715052 4:2.874236 5:3.042508 6:2.869033 7:2.814449 8:2.969041 9:2.867805 10:1.972546 11:1.813895 12:2.515618 13:2.178623 14:1.80031 15:2.415067 16:0.6281437 17:-0.75014 18:-0.2067012 
-1 -0 0 0 1:2.641563 2:1.896622 3:2.729288 4:2.899908 5:2.99168 6:2.863439 7:2.840476 8:2.960406 9:2.909603 10:2.006495 11:1.766431 12:2.590904 13:2.092108 14:1.8422 15:2.449086 16:0.6582708 17:-0.7208915 18:-0.2167832 
-0 -0.24150301499009533 0.15308088997676247 0.2187962109282228 1:2.677811 2:1.896665 3:2.679608 4:2.998584 5:3.031628 6:2.85654 7:2.83956 8:2.98541 9:2.902231 10:1.940887 11:1.934862 12:2.551933 13:2.039877 14:1.956426 15:2.427705 16:0.7349683 17:-0.6419616 18:-0.218419 
-0.16802867436929445 -0 0 0 1:2.667126 2:1.882111 3:2.684103 4:2.979353 5:3.034283 6:2.837223 7:2.870281 8:2.990459 9:2.932113 10:1.947396 11:1.888644 12:2.556051 13:2.008728 14:1.923211 15:2.445893 16:0.7562801 17:-0.6219264 18:-0.2030959 
-0.041895554972974036 -0 0 0 1:2.69962 2:1.954206 3:2.733298 4:3.01131 5:3.054619 6:2.824311 7:2.880924 8:2.962755 9:2.950086 10:1.955928 11:1.785939 12:2.544028 13:1.964417 14:1.889573 15:2.461722 16:0.7550282 17:-0.6171047 18:-0.2216172 
-0.76488699194332688 -0.44385186546218108 0.35606192872726949 0.67898201318444529 1:2.698413 2:1.949707 3:2.710411 4:3.027797 5:3.050344 6:2.828267 7:2.890244 8:2.974012 9:2.935621 10:1.925609 11:1.897777 12:2.553399 13:1.951997 14:1.967555 15:2.457405 16:0.7402466 17:-0.5866455 18:-0.3284541 
-1 -0 0 0 1:2.591699 2:1.997956 3:2.781517 4:2.993397 5:3.006216 6:2.855836 7:2.956218 8:3.008773 9:2.923765 10:2.12563 11:1.783877 12:2.629947 13:2.25514 14:1.784848 15:2.537997 16:0.4958857 17:-0.8418356 18:-0.2130969 
-1 -0 0 0 1:2.559416 2:1.978817 3:2.75088 4:2.955722 5:3.002573 6:2.861783 7:2.933577 8:3.019192 9:2.913779 10:2.180172 11:1.71766 12:2.628445 13:2.301149 14:1.741608 15:2.502912 16:0.5071657 17:-0.8386985 18:-0.1984133 
-1 -0 0 0 1:2.558226 2:1.985486 3:2.756866 4:2.961016 5:3.005483 6:2.860521 7:2.94182 8:3.021701 9:2.919581 10:2.18009 11:1.714285 12:2.630933 13:2.295403 14:1.736273 15:2.509135 16:0.5138382 17:-0.8295418 18:-0.2187023 
-1 -0 0 0 1:2.558521 2:1.986362 3:2.758426 4:2.963744 5:3.003454 6:2.861573 7:2.942517 8:3.020414 9:2.923299 10:2.178442 11:1.716616 12:2.63367 13:2.296071 14:1.737071 15:2.51351 16:0.5158554 17:-0.8280488 18:-0.2196097 
-1 -0 0 0 1:2.550782 2:1.969171 3:2.738956 4:2.970442 5:3.012198 6:2.856894 7:2.931365 8:3.012837 9:2.906551 10:2.165667 11:1.731432 12:2.616605 13:2.298331 14:1.752333 15:2.488017 16:0.5147367 17:-0.8284168 18:-0.2208432 
-1 -0 0 0 1:2.56344 2:1.96727 3:2.748441 4:2.961503 5:3.006514 6:2.860251 7:2.926858 8:3.015226 9:2.920965 10:2.153236 11:1.735087 12:2.633092 13:2.255556 14:1.773753 15:2.511439 16:0.5146019 17:-0.8347139 18:-0.196055 
-1 -0 0 0 1:2.562878 2:1.972159 3:2.748912 4:2.954669 5:3.000286 6:2.852876 7:2.91918 8:3.00809 9:2.914362 10:2.148743 11:1.721094 12:2.624869 13:2.22559 14:1.778711 15:2.499315 16:0.5105114 17:-0.8290948 18:-0.2279914 
-1 -0 0 0 1:2.577338 2:1.988414 3:2.74897 4:2.971277 5:3.008264 6:2.86134 7:2.944464 8:3.010263 9:2.91253 10:2.187489 11:1.715663 12:2.623777 13:2.359566 14:1.695004 15:2.494198 16:0.5211049 17:-0.8292652 18:-0.2019128 
-1 -0 0 0 1:2.584845 2:1.988235 3:2.767726 4:2.960045 5:3.013388 6:2.872768 7:2.953469 8:3.020335 9:2.918409 10:2.206445 11:1.700039 12:2.632803 13:2.348119 14:1.708131 15:2.497001 16:0.5279552 17:-0.8210177 18:-0.2172402 
-1 -0 0 0 1:2.589088 2:1.981512 3:2.777589 4:2.953443 5:3.01407 6:2.868366 7:2.945219 8:3.021291 9:2.925888 10:2.19699 11:1.695317 12:2.634126 13:2.335227 14:1.703115 15:2.500573 16:0.5286357 17:-0.8157018 18:-0.2348931 
-0.91309114872077513 -0 0 0 1:2.616472 2:1.963237 3:2.740556 4:2.922131 5:3.004052 6:2.843506 7:2.909728 8:2.961877 9:2.914555 10:2.079263 11:1.713698 12:2.606973 13:2.202723 14:1.745412 15:2.473367 16:0.5236885 17:-0.8243158 18:-0.215067 
-1 -0 0 0 1:2.555953 2:1.950709 3:2.747678 4:2.924181 5:2.998008 6:2.867081 7:2.910015 8:2.993882 9:2.896145 10:2.141124 11:1.715861 12:2.608105 13:2.277375 14:1.73762 15:2.459342 16:0.5244569 17:-0.816008 18:-0.2430553 
-1 -0 -0 0 1:2.565985 2:2.571868 3:2.539119 4:2.36814 5:1.119387 6:2.331128 7:2.217727 8:1.121919 9:1.862048 10:2.249746 11:1.050164 12:2.064856 13:2.583655 14:0.896933 15:2.201728 16:0.4550724 17:-0.8836381 18:-0.1099674 
-1 -0 -0 0 1:2.569558 2:2.573308 3:2.521182 4:2.377396 5:1.092694 6:2.292488 7:2.220059 8:1.1158 9:1.810352 10:2.258983 11:1.040326 12:2.022457 13:2.604684 14:0.8779832 15:2.17207 16:0.4473101 17:-0.8886675 18:-0.1009148 
-1 -0 -0 0 1:2.582068 2:2.579432 3:2.531256 4:2.360031 5:1.078969 6:2.273119 7:2.212391 8:1.098598 9:1.816159 10:2.252494 11:1.030668 12:2.053467 13:2.62944 14:0.8469197 15:2.235128 16:0.4530421 17:-0.885836 18:-0.1002366 
-1 -0 -0 0 1:2.609198 2:2.586658 3:2.509785 4:2.359483 5:1.157093 6:2.314606 7:2.203342 8:1.167812 9:1.854268 10:2.253975 11:1.065747 12:2.099315 13:2.611699 14:0.8871585 15:2.272592 16:0.4590902 17:-0.8822772 18:-0.1040346 
-1 -0 -0 0 1:2.585116 2:2.587672 3:2.475197 4:2.340061 5:1.123242 6:2.240608 7:2.16661 8:1.154173 9:1.761091 10:2.224499 11:1.052411 12:2.022379 13:2.578378 14:0.8694369 15:2.207868 16:0.4699911 17:-0.8734528 18:-0.1272347 
-1 -0 -0 0 1:2.593884 2:2.578171 3:2.492253 4:2.345419 5:1.120119 6:2.253266 7:2.168305 8:1.146194 9:1.775021 10:2.228575 11:1.04632 12:2.012064 13:2.560513 14:0.8835635 15:2.185571 16:0.47045 17:-0.8768834 18:-0.09875309 
-1 -0 -0 0 1:2.584752 2:2.575796 3:2.475286 4:2.363541 5:1.043804 6:2.252733 7:2.189012 8:1.116576 9:1.81186 10:2.232393 11:1.034524 12:2.046673 13:2.560811 14:0.8869427 15:2.216373 16:0.4723754 17:-0.8761117 18:-0.09638299 
-1 -0 -0 0 1:2.585335 2:2.571388 3:2.397958 4:2.374904 5:1.018115 6:2.137766 7:2.186217 8:1.112635 9:1.732451 10:2.236401 11:1.022011 12:1.981918 13:2.587329 14:0.8509876 15:2.168916 16:0.4649622 17:-0.8802122 18:-0.09506132 
-1 -1 -0 0 1:2.577793 2:2.571481 3:2.400558 4:2.36728 5:1.007786 6:2.124104 7:2.180282 8:1.110415 9:1.713643 10:2.226811 11:1.027359 12:1.965915 13:2.577826 14:0.852081 15:2.162187 16:0.4718315 17:-0.8795132 18:-0.06189968 
-1 -0 -0 0 1:2.613477 2:2.566617 3:2.350024 4:2.36277 5:0.9986445 6:2.17643 7:2.176789 8:1.096066 9:1.850392 10:2.258295 11:0.9780772 12:2.11425 13:2.660752 14:0.7331934 15:2.296784 16:0.4701947 17:-0.8805092 18:-0.06017107 
-1 -0 -0.72092071351762543 0.71329799668195282 1:2.598466 2:2.567583 3:2.335453 4:2.372336 5:1.009183 6:2.175693 7:2.185579 8:1.085408 9:1.893216 10:2.269377 11:0.9774185 12:2.166792 13:2.67373 14:0.6804442 15:2.358681 16:0.4967223 17:-0.864233 18:-0.07980163 
-1 -0 -0 0 1:2.594884 2:2.554682 3:2.307345 4:2.298223 5:1.145144 6:2.198883 7:2.09392 8:1.181613 9:1.88587 10:2.205891 11:1.026159 12:2.158747 13:2.619067 14:0.7180016 15:2.343992 16:0.5068235 17:-0.8568222 18:-0.09479261 
-1 -0 -0 0 1:2.59363 2:2.560606 3:2.315594 4:2.286296 5:1.140758 6:2.204292 7:2.087883 8:1.173555 9:1.914783 10:2.210654 11:1.010294 12:2.189447 13:2.622545 14:0.7006515 15:2.358292 16:0.5099118 17:-0.8576344 18:-0.06673175 
-1 -1 -1 1 1:2.582839 2:2.576017 3:2.249997 4:2.322285 5:1.162556 6:2.256092 7:2.136141 8:1.16726 9:2.00707 10:2.253599 11:1.014178 12:2.270554 13:2.669063 14:0.6736736 15:2.415986 16:0.5103866 17:-0.8572567 18:-0.06794371 
-1 -0 -0 1 1:2.616473 2:2.586234 3:2.247344 4:2.294749 5:1.216866 6:2.248706 7:2.116915 8:1.197145 9:1.937433 10:2.210141 11:1.056917 12:2.202706 13:2.586839 14:0.7871484 15:2.356025 16:0.5212081 17:-0.8510723 18:-0.06338909 
-1 -0 -0.19889766582135596 1 1:2.604479 2:2.579596 3:2.262817 4:2.283463 5:1.224138 6:2.27035 7:2.095372 8:1.191259 9:1.986725 10:2.199492 11:1.052669 12:2.227547 13:2.563903 14:0.8014515 15:2.355147 16:0.5246676 17:-0.8482544 18:-0.07203082 
-1 -0 -0 0 1:2.662983 2:2.626215 3:2.343233 4:2.258358 5:1.215618 6:2.277129 7:2.068323 8:1.19225 9:1.935601 10:2.167453 11:1.088084 12:2.179661 13:2.450549 14:0.888046 15:2.306518 16:0.5336713 17:-0.8431881 18:-0.06502927 
-1 -0 -1 0 1:2.672863 2:2.633816 3:2.361587 4:2.252561 5:1.210744 6:2.326647 7:2.06209 8:1.192119 9:1.990709 10:2.173528 11:1.082333 12:2.236454 13:2.44934 14:0.9006039 15:2.336792 16:0.5483761 17:-0.8297623 18:-0.1038184 
-1 -0 -0 0 1:2.692454 2:2.682908 3:2.464357 4:2.247515 5:1.166368 6:2.246654 7:2.031844 8:1.235359 9:1.750419 10:2.104806 11:1.166606 12:2.018203 13:2.337737 14:1.00767 15:2.1928 16:0.5476797 17:-0.8286253 18:-0.1158753 
-1 -1 -0 0 1:2.703323 2:2.712904 3:2.437455 4:2.190691 5:1.099698 6:2.129515 7:1.97151 8:1.205554 9:1.636419 10:2.029876 11:1.192529 12:1.835391 13:2.214813 14:1.095297 15:2.101034 16:0.532184 17:-0.840516 18:-0.1015533 
-1 -0 -0 0 1:2.731518 2:2.700733 3:2.467141 4:2.218421 5:1.083748 6:2.191016 7:2.000656 8:1.18327 9:1.713103 10:2.056396 11:1.159915 12:1.907403 13:2.224844 14:1.061302 15:2.122352 16:0.5179912 17:-0.8445836 18:-0.1355131 
-1 -0 -0 0 1:2.68795 2:2.750939 3:2.401852 4:2.113818 5:1.21979 6:2.142189 7:1.907808 8:1.269969 9:1.654084 10:1.961188 11:1.240084 12:1.897086 13:2.144937 14:1.155431 15:2.148965 16:0.5110617 17:-0.8444108 18:-0.1605812 
-0.88797118630409166 -0 -0 0 1:2.692911 2:2.785212 3:2.453653 4:2.107603 5:1.238975 6:2.21835 7:1.910206 8:1.26821 9:1.699671 10:1.959001 11:1.21488 12:1.954315 13:2.106622 14:1.179102 15:2.172916 16:0.510711 17:-0.8455751 18:-0.1554898 
-1 -0 -0 0 1:2.75466 2:2.736207 3:2.406003 4:2.190666 5:1.126927 6:2.276326 7:1.948677 8:1.211938 9:1.762141 10:1.976086 11:1.200889 12:1.972295 13:2.054225 14:1.183457 15:2.178286 16:0.5294023 17:-0.8233478 18:-0.2045274 
-0 -0 -0 0.030391465918707266 1:2.69748 2:2.798165 3:2.452426 4:2.046272 5:1.29013 6:2.335285 7:1.889823 8:1.321817 9:1.83184 10:1.898013 11:1.245666 12:2.105798 13:1.959682 14:1.263328 15:2.253632 16:0.5069734 17:-0.8258375 18:-0.2469218 
-1 -0.62315421421652306 -0.66435105041456977 0.73910160634450395 1:2.426543 2:2.753502 3:3.056948 4:1.752634 5:1.49836 6:2.302669 7:1.725153 8:1.398811 9:2.069389 10:1.757702 11:1.299737 12:2.2747 13:1.807501 14:1.25283 15:2.374961 16:0.5141267 17:-0.6733278 18:-0.5313223 
-0.2953497669833135 -0 -0 0 1:2.435172 2:2.787054 3:3.068718 4:1.750495 5:1.446165 6:2.283764 7:1.68981 8:1.406429 9:2.137717 10:1.697515 11:1.340592 12:2.324412 13:1.732535 14:1.322922 15:2.367964 16:0.5183034 17:-0.6375829 18:-0.5699558 
-0.31344360163099544 -0 -0.14709146710558299 0.11742673372039193 1:2.678546 2:2.872117 3:2.78121 4:1.859378 5:1.200485 6:2.075357 7:1.696705 8:1.301798 9:1.691566 10:1.635005 11:1.40257 12:1.767197 13:1.55599 14:1.491427 15:1.876544 16:0.5338418 17:-0.6979545 18:-0.4773598 
-1 -0 -0 1 1:2.59163 2:2.499629 3:2.352221 4:2.33644 5:0.9688693 6:1.98709 7:2.156299 8:1.080416 9:1.692956 10:2.25711 11:0.9468858 12:1.990727 13:2.635884 14:0.6133439 15:2.253471 16:0.3065357 17:-0.9518387 18:0.006237374 
-1 -0 -0 1 1:2.580328 2:2.49699 3:2.338425 4:2.334236 5:0.979392 6:1.981816 7:2.15094 8:1.09954 9:1.693464 10:2.24067 11:0.9790152 12:1.995583 13:2.625395 14:0.6232774 15:2.26119 16:0.3174732 17:-0.9482196 18:-0.009514492 
-1 -0 -0 1 1:2.605996 2:2.511685 3:2.35549 4:2.318834 5:1.039082 6:2.047675 7:2.136012 8:1.094431 9:1.726406 10:2.250498 11:0.9509214 12:2.010075 13:2.618585 14:0.642615 15:2.256858 16:0.3088401 17:-0.9511122 18:-0.001841818 
-1 -0 -0 1 1:2.603812 2:2.522655 3:2.351789 4:2.331141 5:1.035526 6:2.051014 7:2.153794 8:1.103367 9:1.752291 10:2.259653 11:0.9769274 12:2.036505 13:2.630152 14:0.6549237 15:2.270241 16:0.3325823 17:-0.9430667 18:0.003778884 
-1 -0 -0 1 1:2.600537 2:2.521045 3:2.382703 4:2.302232 5:1.048646 6:2.016786 7:2.115587 8:1.099358 9:1.718289 10:2.219918 11:0.9837568 12:1.996031 13:2.580316 14:0.6840135 15:2.246914 16:0.325987 17:-0.9453717 18:-0.002176404 
-1 -0.18799248998077761 -0 0 1:2.62006 2:2.543897 3:2.373339 4:2.265503 5:1.066393 6:1.930701 7:2.077517 8:1.130623 9:1.639659 10:2.184299 11:1.027926 12:1.916116 13:2.526538 14:0.7510296 15:2.171623 16:0.3293732 17:-0.9440769 18:0.01523725 
-1 -1 -0 0 1:2.640194 2:2.545317 3:2.369924 4:2.278867 5:1.042342 6:1.91738 7:2.074842 8:1.138073 9:1.592238 10:2.167111 11:1.057901 12:1.848898 13:2.497639 14:0.8092121 15:2.119318 16:0.3255162 17:-0.9453442 18:-0.01906718 
-1 -1 -0 0 1:2.682362 2:2.57363 3:2.339324 4:2.229868 5:1.060227 6:1.842377 7:2.025449 8:1.134716 9:1.539888 10:2.110823 11:1.075382 12:1.739208 13:2.37184 14:0.9044881 15:2.010806 16:0.325303 17:-0.9452069 18:-0.02760215 
-1 -1 -0.605239838243952 0.63293076735732179 1:2.711133 2:2.674518 3:2.43926 4:2.200434 5:1.027296 6:1.891874 7:1.951654 8:1.168354 9:1.502057 10:1.970162 11:1.203404 12:1.593403 13:2.142256 14:1.113174 15:1.88121 16:0.3350207 17:-0.9400626 18:-0.06358744 
-1 -0.35431618292942541 -0 0 1:2.702649 2:2.688139 3:2.386887 4:2.059119 5:1.145215 6:1.932567 7:1.847808 8:1.231016 9:1.559076 10:1.840168 11:1.262235 12:1.663905 13:1.890614 14:1.258414 15:1.893438 16:0.3480057 17:-0.9277968 18:-0.1344809 
-0.29593667445260063 -0.12045468373421785 -0.52609152663944059 0.53929633146898504 1:2.630368 2:2.852177 3:2.495097 4:1.774215 5:1.520224 6:1.83456 7:1.587571 8:1.426677 9:1.620202 10:1.588847 11:1.403535 12:1.816339 13:1.622797 14:1.451641 15:1.94555 16:0.4326971 17:-0.8737618 18:-0.2220667 
-0.26203426022548421 -0.29661483190766857 -0.2816879153118767 0.27939790084457694 1:2.321209 2:2.860074 3:2.885923 4:1.506088 5:1.474244 6:2.23417 7:1.463735 8:1.399855 9:2.325141 10:1.447458 11:1.433718 12:2.287832 13:1.385105 14:1.50125 15:2.283694 16:0.2789237 17:-0.646457 18:-0.7101373 
-0.23646620869041365 -0.086805520812693104 -0.03571588202861626 0.021242252867342049 1:2.353582 2:2.772886 3:2.541686 4:1.614932 5:1.52214 6:2.196259 7:1.431374 8:1.47413 9:2.257031 10:1.367412 11:1.490835 12:2.115911 13:1.315773 14:1.4901 15:2.057688 16:0.2760632 17:-0.4643916 18:-0.8415043 
-0.4877127024519235 -0.36913980646686689 -0.39321454333491002 0.42695790241331727 1:2.320416 2:2.779597 3:2.695076 4:1.612364 5:1.601578 6:2.162705 7:1.418969 8:1.527984 9:2.201057 10:1.346171 11:1.528515 12:2.079161 13:1.267687 14:1.583502 15:2.034429 16:0.2807484 17:-0.4488995 18:-0.8483334 
-0.2648001527861043 -0.24393045788248266 -0.29762643700287128 0.31076012737190428 1:2.329454 2:2.753303 3:2.648703 4:1.648257 5:1.450827 6:2.206619 7:1.457873 8:1.444595 9:2.182962 10:1.378713 11:1.481199 12:1.977139 13:1.260569 14:1.54248 15:1.906661 16:0.2701383 17:-0.461159 18:-0.8451968 
-0 -0.0010670062690809753 -0.016213403655403167 0.0035057763594592488 1:2.4303 2:2.824571 3:2.993484 4:1.609944 5:1.542065 6:2.089967 7:1.424963 8:1.532208 9:2.162378 10:1.403286 11:1.529281 12:2.295984 13:1.443442 14:1.524816 15:2.265571 16:0.3547202 17:-0.5083873 18:-0.7846757 
-0.49089482263323336 -0.41400120332287721 -0.16606174621333522 0.17524430027363566 1:2.587288 2:2.923353 3:2.811661 4:1.706897 5:1.410008 6:1.920225 7:1.464669 8:1.456007 9:1.815402 10:1.419744 11:1.517126 12:1.87614 13:1.351774 14:1.624822 15:1.941425 16:0.4754007 17:-0.7697459 18:-0.4260111 
-0 -0 -0 0.029873976772758302 1:2.73092 2:2.829867 3:2.262813 4:1.892613 5:1.252407 6:2.004934 7:1.695762 8:1.329946 9:1.690247 10:1.691677 11:1.343971 12:1.857585 13:1.726071 14:1.403489 15:1.987137 16:0.4877515 17:-0.8239833 18:-0.2883575 
-0 -0 -0 0.033668435603603095 1:2.73594 2:2.702818 3:2.151236 4:2.042271 5:1.097692 6:2.040435 7:1.839405 8:1.212963 9:1.718149 10:1.865637 11:1.216877 12:1.875899 13:1.948343 14:1.194086 15:2.071772 16:0.4741408 17:-0.8637319 18:-0.1707563 
-0.36855349388839592 -0 -0 0 1:2.711358 2:2.687449 3:2.178012 4:2.112665 5:1.030177 6:2.068071 7:1.891337 8:1.180405 9:1.74033 10:1.922903 11:1.178611 12:1.908832 13:2.055489 14:1.118459 15:2.124958 16:0.4649683 17:-0.8663014 18:-0.1825553 
-1 -0 -0 0 1:2.722536 2:2.655436 3:2.250864 4:2.120993 5:1.056236 6:2.058739 7:1.887478 8:1.206453 9:1.687125 10:1.900912 11:1.223228 12:1.83398 13:2.004479 14:1.206104 15:2.049309 16:0.4504532 17:-0.8785235 18:-0.1590236 
-1 -0 -0 0 1:2.740172 2:2.653634 3:2.240538 4:2.103232 5:1.092869 6:2.029002 7:1.898008 8:1.188269 9:1.674179 10:1.916014 11:1.197569 12:1.831788 13:2.027188 14:1.173492 15:2.041044 16:0.428244 17:-0.8927338 18:-0.1401194 
-1 -0 -0 0 1:2.706682 2:2.645092 3:2.203255 4:2.151482 5:1.045609 6:2.0085 7:1.925631 8:1.196164 9:1.644391 10:1.960205 11:1.181064 12:1.812514 13:2.133072 14:1.100241 15:2.058068 16:0.4296969 17:-0.8899321 18:-0.1529096 
-1 -0 -0 0 1:2.717657 2:2.646757 3:2.227086 4:2.166104 5:1.045464 6:2.011805 7:1.937799 8:1.197065 9:1.649588 10:1.970919 11:1.175003 12:1.826549 13:2.156724 14:1.074812 15:2.089811 16:0.4299146 17:-0.8945841 18:-0.1220358 
-1 -0.29068417207897757 -0 0 1:2.709162 2:2.611489 3:2.221546 4:2.191802 5:1.038485 6:2.008064 7:1.965934 8:1.194899 9:1.629744 10:1.983437 11:1.183927 12:1.795053 13:2.147426 14:1.110026 15:2.040382 16:0.4257437 17:-0.8953273 18:-0.1308862 
-1 -1 -0 0 1:2.683997 2:2.605958 3:2.251738 4:2.170435 5:1.101103 6:1.980337 7:1.937234 8:1.228792 9:1.590386 10:1.980551 11:1.200171 12:1.777714 13:2.198821 14:1.060597 15:2.063598 16:0.4119758 17:-0.9048969 18:-0.1069477 
-1 -0 -0 -1 1:2.583014 2:2.496335 3:2.266551 4:2.320125 5:0.973563 6:2.05679 7:2.132041 8:1.107277 9:1.773246 10:2.258105 11:0.944378 12:2.051208 13:2.689078 14:0.5874834 15:2.280297 16:0.3357636 17:-0.9419276 18:-0.00593537 
-1 -0 -0 -1 1:2.564051 2:2.491974 3:2.237876 4:2.322532 5:0.9686768 6:1.992654 7:2.121975 8:1.10412 9:1.722122 10:2.24346 11:0.9462336 12:2.00687 13:2.675066 14:0.575727 15:2.260003 16:0.3347852 17:-0.9422874 18:-0.003664054 
-1 -0.24436998337104957 -0.018480960824799775 -1 1:2.574964 2:2.500671 3:2.234335 4:2.330936 5:0.9326439 6:1.980516 7:2.131108 8:1.081884 9:1.709182 10:2.256731 11:0.9348946 12:1.986587 13:2.697009 14:0.5640478 15:2.251136 16:0.3470018 17:-0.9373667 18:0.03055134 
-1 -1 -0 -1 1:2.571475 2:2.516433 3:2.245971 4:2.341147 5:1.009249 6:1.979796 7:2.139302 8:1.120886 9:1.722879 10:2.233663 11:0.9890729 12:2.014773 13:2.661679 14:0.6395381 15:2.27092 16:0.3447716 17:-0.9384236 18:0.02221896 
-1 -1 -0 -1 1:2.59388 2:2.543741 3:2.318869 4:2.295307 5:1.128257 6:2.050516 7:2.096273 8:1.181589 9:1.776627 10:2.197549 11:1.035908 12:2.075479 13:2.601139 14:0.6817746 15:2.315084 16:0.3341054 17:-0.9421019 18:0.02859517 
-1 -0 -0.87690388049682633 -1 1:2.59641 2:2.542157 3:2.240984 4:2.285067 5:1.116782 6:2.102665 7:2.078076 8:1.161911 9:1.865584 10:2.20548 11:1.006918 12:2.161907 13:2.620834 14:0.6608604 15:2.3627 16:0.3754448 17:-0.9268441 18:0.001109215 
-1 -0.31328387080951781 -1 -1 1:2.589632 2:2.606473 3:2.339908 4:2.311619 5:1.271155 6:2.227923 7:2.154189 8:1.21595 9:1.936066 10:2.252996 11:1.074395 12:2.237034 13:2.578968 14:0.8067085 15:2.417439 16:0.3752375 17:-0.9267653 18:0.01739847 
-1 -1 -1 -1 1:2.711373 2:2.766086 3:2.640897 4:2.318584 5:1.400904 6:2.580303 7:2.237741 8:1.222573 9:2.271627 10:2.367373 11:1.054476 12:2.457184 13:2.537373 14:0.9444872 15:2.554394 16:0.4485018 17:-0.8930452 18:-0.03628116 
-1 -0.78119033277849026 -0.45361553866821375 -0 1:2.73096 2:2.83867 3:2.967349 4:2.31007 5:1.606982 6:2.686348 7:2.268295 8:1.560817 9:2.673488 10:2.476315 11:1.299977 12:2.630135 13:2.64226 14:1.397908 15:2.64732 16:0.5264332 17:-0.8316639 18:-0.1766445 
-1 -0.33430377672312661 -0.47616569509070505 -0.19133806007502979 1:2.71736 2:2.840301 3:2.996496 4:2.294877 5:1.620876 6:2.710801 7:2.272318 8:1.570573 9:2.674948 10:2.504205 11:1.285241 12:2.656124 13:2.667544 14:1.315994 15:2.640204 16:0.5912266 17:-0.6776763 18:-0.4372711 
-1 -0.28166475980364986 -0.3042699767542823 -0.39027228693214117 1:2.756413 2:2.806436 3:2.970215 4:2.43706 5:1.616295 6:2.704092 7:2.389093 8:1.785234 9:2.779175 10:2.629957 11:1.666261 12:2.736043 13:2.861722 14:1.752915 15:2.561056 16:0.592512 17:-0.6843405 18:-0.4249797 
-0.31018588003481101 -0.44925115393796461 -0.34666347939843684 -0.27380563094028715 1:2.690512 2:2.77011 3:3.00127 4:2.151311 5:2.250338 6:2.722494 7:2.016455 8:2.347314 9:2.834221 10:2.228081 11:2.365987 12:2.752595 13:2.560916 14:2.54828 15:2.629207 16:0.5375901 17:-0.49174 18:-0.6849734 
-1 -0.080748625524012047 -0.23182777228856011 -0.10538650603596558 1:2.702587 2:2.796987 3:3.035725 4:2.226836 5:2.171182 6:2.770742 7:2.06632 8:2.303545 9:2.838824 10:2.225233 11:2.359077 12:2.792999 13:2.569091 14:2.467804 15:2.684548 16:0.5146923 17:-0.4260561 18:-0.7440215 
-0 -0 -0 -0.0090273529759019207 1:2.772418 2:2.865482 3:2.978956 4:2.095825 5:2.667526 6:2.865328 7:1.950492 8:2.722172 9:2.954298 10:2.042595 11:2.774253 12:2.869782 13:2.390192 14:3.050099 15:2.86897 16:0.5177279 17:-0.435361 18:-0.7364907 
-0.84998445752813634 -0.40299269584211883 -0.45375903875802392 -0.25555897855449144 1:2.725715 2:2.868886 3:2.992867 4:2.137715 5:2.83662 6:2.942561 7:2.078972 8:2.743842 9:2.921722 10:2.209641 11:2.841487 12:2.979926 13:2.581155 14:3.10294 15:2.995249 16:0.4162441 17:-0.4133853 18:-0.8098478 
-0 -0.03845819013708425 -0.10415656135347295 -0 1:2.469497 2:3.091444 3:2.979396 4:2.351221 5:2.888345 6:2.982575 7:2.383852 8:2.740661 9:3.125101 10:2.348881 11:2.72834 12:3.070282 13:2.491133 14:2.937111 15:3.076118 16:0.2102256 17:-0.2417202 18:-0.9472997 
-0.84078455466867363 -0.39908940077572241 -0.47605919283471143 -0.33748246798575215 1:2.5318 2:3.018851 3:3.054492 4:2.096873 5:2.995059 6:2.893203 7:1.96571 8:1.638834 9:2.810147 10:1.868023 11:1.3036 12:2.657742 13:2.458374 14:2.860087 15:2.954773 16:0.210765 17:-0.05733098 18:-0.9758541 
-0.60088026013607576 -0.30047152180949366 -0.36873300516416185 -0.25211831805689444 1:2.58645 2:2.982921 3:3.06534 4:2.109229 5:3.07132 6:2.980934 7:2.08519 8:2.097156 9:2.377218 10:1.974802 11:1.222149 12:2.853571 13:2.528173 14:2.680183 15:3.036741 16:0.210765 17:-0.05733098 18:-0.9758541 
-0.36258875431628468 -0 -0 -0 1:2.526181 2:2.892413 3:3.036731 4:2.197061 5:3.028656 6:2.990819 7:2.235995 8:2.985241 9:3.116735 10:2.29696 11:3.002298 12:3.110015 13:2.459344 14:2.962427 15:3.052599 16:0.210765 17:-0.05733098 18:-0.9758541 
-0 -0 -0.11778372669513541 -0 1:2.476379 2:3.031444 3:2.942515 4:2.59184 5:2.847997 6:3.014367 7:2.72726 8:2.937451 9:3.013432 10:2.656718 11:2.798658 12:3.023067 13:2.56499 14:2.911532 15:3.052289 16:-0.1148911 17:0.3681152 18:-0.9226545 
-0.78857928163376823 -0.43296598398221231 -0.38752986896632752 -0.29362499270321485 1:2.457593 2:3.007073 3:2.984137 4:2.715466 5:2.76625 6:3.038457 7:2.745995 8:2.860086 9:3.06825 10:2.608369 11:2.766708 12:3.022889 13:2.490235 14:2.959389 15:3.09834 16:-0.1148911 17:0.3681152 18:-0.9226545 
-0.4056781883056052 -0 -0 -0.08667471164362818 1:2.557628 2:2.967113 3:2.893928 4:2.499282 5:2.971208 6:3.098222 7:2.536902 8:3.053755 9:3.090171 10:2.510202 11:3.024338 12:3.034199 13:2.530029 14:2.984728 15:2.973174 16:-0.1148911 17:0.3681152 18:-0.9226545 
-0.48406557863376748 -0.236575445318841 -0.29756406077518655 -0.20489508999435954 1:2.342209 2:3.056396 3:2.722741 4:2.47689 5:2.918195 6:3.06612 7:2.519704 8:2.912235 9:3.112675 10:2.236495 11:1.419108 12:2.620545 13:2.505063 14:3.118442 15:3.064805 16:-0.05722461 17:0.3719769 18:-0.9264764 
-0.17763543109784341 -0.27323239027141011 -0.46056275126813517 -0.15663984446220031 1:2.594778 2:2.904874 3:3.034456 4:2.460062 5:3.00556 6:3.063331 7:2.544631 8:3.010564 9:3.065795 10:2.569533 11:2.98966 12:3.038252 13:2.626453 14:2.937498 15:2.962899 16:-0.05722461 17:0.3719769 18:-0.9264764 
-0.66498678995865246 -0.34433764993192872 -0.40726051669909269 -0.28350410829091915 1:2.45155 2:3.058656 3:2.857088 4:2.424011 5:2.858098 6:3.064515 7:2.478922 8:2.816183 9:3.018839 10:2.239389 11:1.095571 12:2.723622 13:2.430472 14:3.079226 15:3.114642 16:-0.09685622 17:0.3339123 18:-0.9376147 
-0.39203955006735786 -0.14802585329843501 -0.16411973756286108 -0.14153685807577351 1:2.553265 2:2.95256 3:2.772494 4:2.22452 5:2.596651 6:2.984222 7:2.285545 8:2.134928 9:3.018691 10:2.247892 11:1.890104 12:2.966379 13:2.446325 14:2.924137 15:3.076141 16:-0.1595535 17:0.3398674 18:-0.9268402 
-0.35548288104229342 -0.10299379275775675 -0.11851465663672028 -0.089244460115835339 1:2.309572 2:3.0604 3:2.917606 4:1.661871 5:2.821526 6:2.974174 7:1.644035 8:2.340237 9:2.763256 10:1.695149 11:2.239721 12:2.792157 13:1.961218 14:2.761941 15:2.966082 16:-0.04001546 17:0.1147689 18:-0.992586 
-0.048950066721039506 -0.026020779933615762 -0.0302776442015779 -0.01567321858600576 1:2.22543 2:3.072267 3:2.93606 4:1.671577 5:2.679329 6:2.967078 7:1.698967 8:2.602197 9:2.800491 10:1.74202 11:2.506614 12:2.795094 13:1.810166 14:2.703648 15:2.768766 16:-0.04001546 17:0.1147689 18:-0.992586 
-0.37728479232694712 -0.17835320818915074 -0.19739040535630434 -0.15491548089435689 1:2.54663 2:2.95293 3:3.015326 4:1.760173 5:2.944736 6:2.995604 7:1.718982 8:2.920381 9:2.940811 10:1.801431 11:3.005483 12:2.863229 13:1.90183 14:2.988194 15:2.805111 16:-0.04001546 17:0.1147689 18:-0.992586 
-0.16189952164174065 -0.1717184698193574 -0.20674715386002368 -0.15963577690207573 1:2.479015 2:2.997394 3:3.080043 4:1.719456 5:2.9116 6:3.011725 7:1.672178 8:2.893526 9:3.017839 10:1.786654 11:2.950097 12:2.947687 13:1.923765 14:2.965129 15:2.930239 16:-0.08310354 17:0.04553922 18:-0.9954999 
-1 -0.29887200464367769 -0.36410647601776097 -0.25932558767598274 1:2.443872 2:3.044036 3:2.932687 4:1.771207 5:2.527483 6:2.989306 7:1.639018 8:2.368237 9:2.548585 10:1.683697 11:2.590611 12:2.770723 13:1.824109 14:2.818586 15:2.995106 16:0.05942782 17:0.1514467 18:-0.9866773 
-1 -0.45686582954330052 -0.59286056592290237 -0.39243584309764395 1:2.888835 2:2.728808 3:2.78242 4:2.200275 5:3.052431 6:3.084658 7:2.125362 8:2.942843 9:3.013836 10:1.985388 11:2.206051 12:2.841155 13:1.86182 14:2.160368 15:2.960648 16:0.05942782 17:0.1514467 18:-0.9866773 
-0.42051223937691218 -0 -0 -0 1:2.458387 2:2.892891 3:3.006639 4:1.956915 5:2.634183 6:2.832184 7:2.026067 8:2.4707 9:2.988254 10:2.031523 11:2.530938 12:3.044859 13:2.094818 14:2.524515 15:3.062713 16:0.2017793 17:-0.3014272 18:-0.9318942 
-0.13333712284526347 -0 -0 -0 1:2.456347 2:2.908492 3:2.801691 4:2.095119 5:2.622434 6:2.940076 7:2.028354 8:2.638883 9:3.042644 10:1.969256 11:2.786665 12:3.024073 13:2.024596 14:2.59129 15:3.006528 16:0.2432296 17:-0.1771815 18:-0.9536488 
-0.089555350361596481 -0 -0 -0 1:2.540499 2:2.946929 3:2.868631 4:2.067787 5:2.632504 6:2.942537 7:2.047529 8:2.562976 9:3.038857 10:1.977876 11:2.636096 12:3.017968 13:2.003703 14:2.540842 15:2.975392 16:0.2432296 17:-0.1771815 18:-0.9536488 
-1 -0 -0 -0 1:2.647514 2:2.866555 3:2.914268 4:2.162924 5:2.532696 6:2.961383 7:2.060655 8:2.57392 9:3.011092 10:1.964622 11:2.693203 12:2.957889 13:2.052208 14:2.528366 15:2.974465 16:0.2432296 17:-0.1771815 18:-0.9536488 
-1 -0 -0 -0 1:2.88795 2:2.90329 3:2.896671 4:2.255484 5:2.547252 6:2.966023 7:2.095739 8:2.636274 9:2.998146 10:1.956277 11:2.693764 12:2.964541 13:2.084043 14:2.441808 15:2.970976 16:0.2432296 17:-0.1771815 18:-0.9536488 
-1 -0 -0 -0 1:2.840003 2:2.88157 3:2.875834 4:2.202035 5:2.546144 6:2.992424 7:2.082374 8:2.633754 9:2.997136 10:1.963422 11:2.717311 12:2.944812 13:2.078351 14:2.500594 15:2.964222 16:0.2432296 17:-0.1771815 18:-0.9536488 
-1 -0 -0 -0 1:2.820298 2:2.877132 3:2.901397 4:2.208405 5:2.629301 6:2.949533 7:2.073099 8:2.629453 9:2.954075 10:1.987204 11:2.769143 12:2.956125 13:2.104717 14:2.614494 15:2.982211 16:0.2432296 17:-0.1771815 18:-0.9536488 
-1 -0 -0 -0 1:2.727665 2:2.9141 3:2.890625 4:2.202347 5:2.516916 6:2.939227 7:2.069566 8:2.602816 9:2.974131 10:1.982032 11:2.747645 12:2.921001 13:2.11966 14:2.612519 15:2.929766 16:0.2432296 17:-0.1771815 18:-0.9536488 
-1 -0 -0 -0 1:2.725302 2:2.910017 3:2.876866 4:2.2115 5:2.503605 6:2.95457 7:2.08624 8:2.599058 9:2.986571 10:1.993917 11:2.740992 12:2.926888 13:2.12502 14:2.609367 15:2.930319 16:0.2432296 17:-0.1771815 18:-0.9536488 
